
#ifndef WEIGHTS_H
#define WEIGHTS_H

// Convolution layer 1 ------------------------------------------------------------------------------

/*__attribute__((section(".weights")))*/ static float conv1_weights[6][1][5][5] = {{{{-0.1126212,0.01478986,-0.00136764,-0.28227627,-0.09659027},{0.23170401,0.04320855,0.00602877,-0.1271819,-0.18813823},{-0.12559764,0.2812213,0.23125961,-0.16942848,-0.02605026},{0.09966306,0.0773588,0.28260425,-0.04354104,0.03062895},{0.12237392,-0.12018944,0.18123712,0.32464975,0.10660913}}},{{{0.24631907,0.21711776,0.02506923,0.0330161,0.32838708},{0.15172632,-0.02730825,0.34331155,0.1815456,0.19621681},{0.12854756,-0.03302682,-0.01134975,0.21687052,0.03321791},{-0.1920106,-0.04244152,-0.08788291,-0.19880374,-0.23210996},{-0.17921373,-0.21536548,-0.28849468,-0.36086386,-0.30472577}}},{{{0.078275,0.25394452,0.05446625,0.13883911,0.04548939},{0.21980549,0.07895017,-0.03273264,-0.09036132,0.17876031},{0.18431801,0.20197195,0.11040661,0.09272341,0.10727201},{-0.06101023,-0.0822708,-0.11915435,-0.16617322,-0.08814323},{0.21570913,0.16440964,-0.03237846,-0.0078712,-0.14052159}}},{{{-0.12467184,-0.05546278,0.25111133,0.18037865,0.27798885},{0.09435782,0.14991133,0.09991201,0.28333554,-0.06464014},{0.03126897,0.1334774,0.24668378,0.3206889,0.07491767},{-0.09302969,0.09038012,0.15778711,-0.03239561,0.22846964},{-0.14323589,-0.10914959,0.23489335,0.01328714,-0.0497629}}},{{{-0.05832804,0.17125738,0.0375599,0.1804217,-0.01891094},{0.11324372,0.22459196,-0.04195233,-0.07657061,0.08918105},{0.0215088,0.31081212,0.27948669,-0.12955977,-0.05503586},{0.20990023,0.25336674,0.17834997,-0.1347225,-0.23656237},{0.2624872,0.18156843,0.1456773,0.11488611,-0.13564007}}},{{{0.30379954,0.07559599,-0.05252557,-0.16931163,-0.09547036},{0.26911634,0.11987092,0.11471815,0.18117556,0.18968995},{0.22629125,0.41312304,0.09234407,0.14312819,0.11580849},{-0.112939,-0.14653537,0.02935619,0.25932878,0.05051954},{-0.18875894,-0.10567374,-0.04513437,-0.19295393,-0.10753826}}}};
/*__attribute__((section(".weights")))*/ static float conv1_bias[6] = {0.00102384,0.06982609,-0.06611112,-0.00096681,-0.03124988,-0.01301644};


// Convolution layer 2 ------------------------------------------------------------------------------

/*__attribute__((section(".weights")))*/ static float conv2_weights[16][6][5][5] = {{{{0.07227187,-0.00777113,-0.05906748,0.00309657,-0.05482227},{0.11078564,0.12963934,0.02896914,-0.00503986,0.07487454},{0.00824745,0.14926268,0.04262574,0.1337126,-0.01377456},{0.04851984,0.05280967,-0.01955858,0.00273548,0.03986061},{-0.00584064,-0.09418985,0.03694697,-0.04515617,-0.0547997}},{{-0.04203481,0.00760514,0.13108718,0.04933209,0.08359811},{-0.12696321,-0.0256389,0.08269559,-0.0587583,-0.06143306},{-0.0317105,-0.05753136,-0.11023267,-0.04993506,0.10628079},{0.10353419,0.06300253,-0.02707694,0.0636208,0.16105936},{0.00411756,0.04651191,-0.01946107,0.11411402,-0.00938398}},{{-0.05092802,-0.05034909,-0.03587094,-0.07063083,-0.0601817},{-0.1025417,0.06081058,0.08851595,-0.09277046,0.04384346},{0.07024887,-0.02420199,0.0499424,0.09506102,0.04800116},{-0.05143527,-0.03960116,0.11449659,0.1168258,-0.03609875},{0.0627409,0.0759045,0.08798768,-0.03149104,0.01640621}},{{-0.09181835,0.06036483,-0.07119948,-0.05719179,-0.14664559},{0.08941451,0.02198816,-0.07916398,-0.00347721,-0.09082882},{0.11041418,-0.04212935,-0.05903634,-0.05343092,-0.00796622},{-0.0175856,-0.025787,-0.04146494,0.00320029,-0.00646244},{0.0168614,0.00861509,0.03695849,0.08525968,0.03458751}},{{0.05876019,0.10727987,-0.04859356,0.0823177,0.0043504},{-0.02394597,0.05366936,0.03671447,0.02703383,-0.04189293},{0.01133968,0.07332864,0.0480289,0.02841193,0.09236877},{0.03314222,-0.06964815,0.04558869,0.09487996,0.08503768},{-0.11558022,-0.07393146,-0.01046499,0.07791904,0.10649918}},{{0.01158932,-0.03361737,0.02911023,0.06878939,0.0666358},{-0.09150653,-0.02755325,-0.03180105,-0.0447217,-0.0504058},{-0.03050054,-0.0324651,-0.01669092,0.05535035,0.09169932},{0.00550129,0.11640462,0.06616913,0.09591775,0.05434511},{0.02922973,0.03350792,0.08144966,0.10212954,0.02251785}}},{{{-0.03150117,0.13261431,0.13314751,0.05565965,0.03275546},{-0.01688424,-0.11988737,0.1208908,0.09815916,-0.07547747},{-0.06706432,-0.14778396,0.15545297,0.05777908,0.05310142},{0.01162548,-0.24141479,0.02149143,0.18173394,0.13361652},{0.11565544,-0.0777733,0.03533114,0.06219684,0.07858241}},{{-0.02829338,-0.18010098,-0.13483796,-0.05043859,-0.00534939},{0.01940557,-0.12591173,-0.22225326,-0.02836229,-0.06629451},{-0.11596731,-0.20467374,-0.23178592,-0.23897558,-0.07307684},{-0.10479374,-0.06274248,-0.07152989,-0.05027228,-0.07361923},{-0.10629889,0.04967429,-0.03998748,0.03042986,-0.00933343}},{{0.08814196,-0.0291522,-0.00517274,0.12782125,0.07960618},{0.04972988,-0.03899872,-0.02945667,0.1413998,0.06541413},{0.02931268,-0.14299959,-0.09066391,0.12085579,-0.04652299},{-0.01773,-0.11160662,-0.02493305,-0.00087419,0.08515617},{-0.07021207,-0.09549686,-0.0701452,0.01591312,-0.01620607}},{{0.06169537,0.08717386,0.02460131,-0.04429563,-0.01949918},{0.00422089,0.11735378,0.1730932,0.09496445,-0.14546959},{-0.02799643,0.05635778,0.14885135,-0.03818766,-0.16377366},{-0.16592801,-0.03378818,0.03299041,-0.02579071,-0.00010006},{-0.10375855,-0.0793598,0.05083151,-0.01404081,-0.06507753}},{{0.07001748,0.08637336,0.17143291,0.10021372,0.03023051},{-0.05872058,-0.12566817,0.10404534,0.12418711,0.07276478},{-0.01530932,-0.17542443,0.11347051,0.09512046,0.01801911},{-0.01452193,-0.04763886,-0.03748002,0.05885853,0.08198326},{0.0165493,-0.06747853,-0.00353787,-0.02135757,0.07782111}},{{-0.01338471,-0.00619639,0.1275299,0.04913716,-0.1101482},{-0.0513433,-0.01954037,0.0979861,0.03310288,-0.13877115},{-0.00590572,-0.01779968,-0.10569634,0.05454266,-0.05462587},{-0.12604386,-0.1182361,-0.14842379,0.1152999,0.0846608},{-0.10236602,-0.14609672,-0.15473574,-0.05688418,-0.02494017}}},{{{0.00169051,0.09762067,0.04247515,0.08495217,0.10823639},{-0.11380385,0.00920117,-0.03562032,-0.10143373,-0.0832964},{-0.05315133,-0.08789525,-0.15016019,-0.12811482,-0.1855641},{0.01198751,-0.12376744,-0.1480229,-0.11773705,0.03578903},{0.07055946,0.01732116,0.02171917,0.10906203,0.18661226}},{{-0.20643419,-0.262508,-0.09428042,0.11566713,0.01840314},{-0.03757682,0.17643957,0.14839981,0.10195297,0.10704532},{0.19742762,0.13244553,0.11129999,0.03929951,-0.02905358},{0.13967793,0.04134335,0.11375558,-0.02862572,-0.10361028},{-0.08305561,0.02547284,-0.09859654,-0.10976464,0.03483153}},{{-0.09181482,0.0010797,0.02960684,0.00395764,0.14924267},{-0.05726881,0.06448295,0.13692364,0.08279513,0.05607472},{0.11126678,0.08477907,-0.01876551,0.07072617,-0.11377908},{0.08192112,0.01668057,-0.03806858,-0.19763835,-0.0752565},{-0.07276836,-0.09825227,-0.04050478,-0.14314094,-0.02300469}},{{0.11095823,0.05500428,0.01514515,0.06118468,0.0938913},{0.15328585,0.12435608,0.15744568,0.16710198,-0.02292146},{-0.0005392,-0.02732212,0.01624866,-0.10229763,-0.12174172},{0.0656596,-0.00906422,-0.10725435,-0.17636772,-0.17677493},{-0.09962399,-0.15011019,-0.17051511,-0.01590138,0.05164696}},{{-0.14616947,0.01520036,0.1004848,0.12758502,0.03598044},{0.03913682,0.15221255,0.11664975,0.03867957,-0.03169427},{0.08988704,0.06405396,-0.03180303,-0.15672818,-0.13208167},{0.00729369,0.03917988,-0.16623348,-0.20164713,-0.01316622},{0.06089369,-0.04859569,-0.04274286,-0.03974712,0.02774139}},{{-0.01095001,-0.12279647,0.05227375,-0.01918965,0.01354593},{-0.01633108,0.08351525,0.11359306,-0.00330978,0.11503879},{0.06895173,0.063104,-0.03522457,0.01351397,-0.06456551},{-0.06958243,0.08400486,0.02048021,-0.17695361,-0.15083432},{-0.05906264,-0.00505778,-0.20053747,-0.17124426,-0.02589102}}},{{{0.08103377,-0.01070461,-0.08943094,0.12286875,0.09055033},{0.09254563,-0.17435105,0.01516685,0.02064214,-0.01958239},{-0.06247025,-0.10697092,-0.08973312,0.06603282,-0.01690461},{0.05376812,-0.12833776,-0.06372283,0.05520061,0.08269583},{-0.08297703,-0.05087303,0.01283074,0.02088068,-0.03769042}},{{-0.00925901,0.0289908,-0.2742328,-0.2178441,-0.06692936},{0.06882674,-0.02233291,-0.30822,-0.29098243,0.02989609},{0.13065125,-0.33216241,-0.28490072,-0.15593013,0.08684634},{-0.05199963,-0.23804884,-0.18344411,-0.23578463,0.02230977},{-0.00415325,-0.1782984,-0.22756881,-0.08365231,0.01275716}},{{0.08815487,-0.06776585,-0.08145233,-0.07031989,-0.00206003},{0.08031995,-0.02952171,-0.01826265,0.07162831,0.0514906},{0.06653465,-0.0597281,-0.05887608,0.1591986,0.10112409},{-0.0153307,-0.06938627,0.00692896,0.1769935,0.04334775},{0.00403574,-0.02711114,-0.00021354,0.07317411,-0.00917963}},{{0.04817742,-0.00230413,0.04556198,0.06505422,0.09213077},{-0.04276217,-0.09966177,0.06910884,0.08278229,-0.03936679},{-0.12642083,-0.05859338,0.05260555,0.09240643,-0.13456862},{-0.16482531,0.02938861,0.20262574,0.10387353,-0.19477035},{-0.08836474,0.04236978,0.13739333,-0.08286906,-0.17118134}},{{-0.02340124,-0.08272424,-0.00295678,0.0666117,0.08132794},{0.05465116,-0.08389499,-0.06069735,0.03912759,0.20060751},{0.08050839,-0.18514185,0.07955744,0.22322352,0.07698519},{-0.0295707,0.01321425,0.18817289,0.18292989,0.04048039},{0.08666941,-0.00636577,0.12299848,0.07875922,0.0031}},{{0.07414425,0.00872404,0.00728637,0.02859058,-0.10178626},{0.14678447,0.03387278,-0.06083201,-0.00397571,-0.03909963},{0.07563682,-0.19327945,0.01194906,-0.12287703,0.0357854},{-0.00148283,-0.07192857,-0.09342745,-0.05968695,0.04608831},{-0.02696461,-0.14394702,-0.12282602,0.10166829,0.02995947}}},{{{0.08738325,0.05265088,-0.09621576,0.00916708,0.02097802},{0.16407479,-0.06464365,-0.11950571,-0.03155417,0.0609314},{0.00846835,-0.16141017,-0.25657967,0.05535187,0.02280356},{0.03207148,-0.09893508,-0.21051684,-0.02070416,0.16879626},{0.01514771,-0.05749003,-0.0294043,0.09597656,0.11918619}},{{-0.00650978,-0.03098772,-0.06436864,-0.29447469,-0.31909665},{0.08746875,0.03894581,-0.10892137,-0.29952174,-0.07641279},{0.20724939,0.08220892,-0.35702443,-0.34905502,-0.14656964},{0.2477079,-0.18296544,-0.30785826,-0.26870182,-0.07009578},{-0.01962001,-0.24997441,-0.177342,-0.21410632,0.0393993}},{{0.00202437,-0.06400841,0.02390566,-0.03602599,0.03410333},{0.05743783,0.0045426,-0.09822239,0.01730797,0.09686309},{0.04653082,-0.01719856,-0.07875269,0.02325197,0.07168383},{0.14058709,-0.12784821,-0.10180388,0.04319191,0.11771363},{0.03888751,-0.0085303,-0.03458918,0.01967996,0.09144805}},{{0.04960384,-0.01196619,0.04512013,0.06658911,0.14955328},{0.01331954,-0.01819566,0.07239343,0.13888597,0.20675933},{0.066088,-0.20298505,-0.01461148,0.17090312,0.0956207},{-0.13131298,-0.21629247,0.0360024,0.13853869,0.10422027},{-0.09612109,-0.09973881,0.09156623,0.04546684,-0.11394811}},{{0.13081416,-0.07411756,-0.04757262,-0.05070646,0.10676567},{0.01755216,0.07052428,-0.17000929,0.013281,0.16218513},{0.06124805,-0.11865503,-0.11675589,0.08951151,0.21749011},{-0.02691799,-0.11660255,-0.08863426,0.15448245,0.13705689},{-0.01722642,0.01578849,0.05712382,0.05434934,-0.00210344}},{{-0.04286284,-0.01570208,0.05613088,-0.05112783,0.0570203},{0.03621977,0.01060617,-0.06413411,-0.07500228,0.01336809},{0.15917937,0.01986012,-0.09283543,-0.03651099,0.07186278},{0.12921272,-0.0343819,-0.12224,-0.21746659,0.02219929},{0.02238964,-0.16780251,-0.1322735,-0.17036968,0.13857014}}},{{{0.11946142,0.01846435,-0.07375072,-0.06810381,-0.11868273},{0.10419507,0.13397248,0.18315357,0.12884191,0.09138206},{0.03480665,0.02310507,0.23084584,0.10668755,0.10042059},{-0.04486267,-0.07120271,-0.05066664,0.06608423,0.11325614},{-0.0936013,-0.00128274,-0.0763526,-0.06670733,-0.12677802}},{{-0.11022105,-0.14218515,-0.03083379,0.04107892,0.09772097},{-0.06236648,-0.21302658,-0.30314708,-0.23402709,-0.04469035},{0.17888518,0.10869189,0.04015032,0.00484798,-0.01640237},{0.05623565,0.14934991,0.21291614,0.21697809,0.10811328},{-0.03639444,-0.05012902,0.00618724,0.01476164,0.03004866}},{{0.07043757,0.08247249,0.02657074,0.05957936,-0.12676494},{0.01106653,0.06825273,-0.07748338,-0.06241493,-0.00409925},{0.05904116,0.0834925,0.07896291,-0.0076329,0.03507062},{-0.05131299,0.0483,0.10566825,0.05579958,0.02128729},{-0.1462128,-0.12627673,-0.1254153,-0.07236171,-0.09064443}},{{-0.0434595,-0.12986095,-0.1616957,-0.16523822,-0.041643},{0.04155133,0.06476278,0.04090121,-0.06608503,-0.10197975},{0.13116391,0.10694029,0.06187656,0.07733097,-0.00789567},{0.0278023,0.04875107,0.01148584,0.08178908,-0.00558586},{-0.18080904,-0.18048443,-0.09662959,-0.03211009,0.03103864}},{{-0.00869531,0.03465101,0.0761584,0.00400777,-0.05631475},{0.0858111,0.06649411,0.08945537,0.13925989,-0.02205233},{-0.04684251,0.01343665,0.02234228,0.0882546,0.10381714},{-0.18908836,-0.17486677,-0.0171504,0.01098927,0.08556182},{-0.11344717,-0.09401755,-0.05091297,-0.11407787,0.01771317}},{{-0.03462483,-0.18198927,-0.22228755,-0.12308228,-0.04039767},{-0.00948406,0.06789702,-0.09430515,0.02350955,-0.04967769},{0.04261807,0.16003278,0.22277579,0.17485644,0.0835673},{-0.12416473,0.03737209,0.1764235,0.17829105,0.13543177},{-0.16061573,-0.22028154,-0.18489452,-0.14464608,0.02575376}}},{{{-0.03792171,-0.08849216,0.00944675,-0.00686361,0.08897895},{0.14028682,0.02163074,-0.01415589,-0.05710459,0.07178339},{0.15015854,-0.01471647,-0.09107362,-0.09721191,-0.03804851},{0.0665471,0.12318065,-0.0244929,-0.08509134,-0.03492364},{-0.07978184,0.07466489,0.04924181,0.01865215,-0.01494192}},{{0.02552189,-0.00218051,-0.13317557,-0.13906221,-0.00364966},{-0.0493069,-0.12889053,-0.13417727,0.02258413,-0.05811978},{-0.07478181,-0.1260612,0.02511683,0.00075625,-0.0380336},{-0.04294761,-0.00317059,-0.02910077,0.00448815,0.11145908},{0.07912926,-0.04846622,-0.05373133,0.07121781,0.09556212}},{{0.03992116,0.07800994,-0.02341031,-0.01105439,0.0902871},{-0.00286941,-0.0778829,-0.07538004,0.07664836,0.01459873},{0.01481621,0.01166013,0.02534161,-0.03431835,0.09292174},{-0.06000502,-0.03337428,-0.04795698,-0.04115255,-0.02376844},{0.04683585,-0.05034093,0.04352425,-0.08342865,-0.10773122}},{{-0.05516774,0.04010186,-0.03944065,-0.00343131,-0.0107933},{-0.01704214,-0.09389327,0.00107843,0.09452505,0.05964454},{0.07846674,0.0894999,-0.00373943,-0.01049976,-0.04776746},{-0.01995924,0.1062195,-0.05190261,0.0416076,-0.0003436},{-0.00252253,-0.02060999,0.05093678,0.01173236,-0.06287823}},{{0.04831709,0.00580722,-0.03926448,-0.07316295,0.11959277},{-0.0103965,0.0275821,0.00556649,0.08954955,0.0303744},{0.09368871,0.1099097,0.1319706,0.03263749,-0.03250796},{-0.02240367,0.11767161,0.11313958,-0.03230804,-0.10205676},{-0.00957277,0.06077114,-0.01634463,0.02747713,-0.05791157}},{{-0.0441063,0.05493127,-0.0038511,-0.10693216,0.01434966},{-0.01574451,-0.01757072,-0.02007686,-0.07178014,-0.02572668},{0.10428683,0.06993338,-0.09861349,-0.12097768,0.07753789},{0.03460942,0.09893586,0.03238168,-0.12349252,-0.09782501},{0.04587292,-0.01253366,0.06413042,0.01667307,-0.04369445}}},{{{0.00116983,0.09560824,0.04678382,0.02528279,-0.0580467},{-0.01941399,-0.0093251,0.09134787,-0.08171963,-0.19441786},{-0.2034163,0.11209797,0.04422253,0.03419941,-0.1689972},{-0.16646799,0.09716637,0.13749334,-0.07860316,-0.00927024},{-0.09875536,0.01120979,-0.01100054,-0.03192448,-0.06920468}},{{-0.18282875,-0.16491631,-0.04791185,0.09455893,0.0882885},{-0.22547217,-0.30401358,0.03899129,0.09354084,0.04967904},{-0.31964597,-0.06549833,-0.06691474,0.03734795,0.01015643},{-0.11857819,0.03540064,-0.03459826,0.09965401,0.04899847},{0.01215881,-0.04575126,0.05431255,0.04638045,0.09351915}},{{-0.00150209,-0.04106735,0.12406958,0.08016362,0.11974197},{-0.05505611,0.08585661,0.14943855,0.07179397,0.02317229},{0.0249208,0.01453643,0.03631623,-0.00304736,-0.16518953},{-0.06707659,0.06709597,0.03777992,-0.0062209,-0.16395417},{-0.06501724,0.10209068,0.010234,-0.13766892,-0.10166436}},{{0.02894307,0.08039524,-0.00836498,0.0055223,0.06890943},{0.01339062,0.17740981,-0.01982401,-0.11958288,-0.145216},{0.07355338,0.12446471,0.11506734,-0.16727532,-0.13638456},{0.1466918,0.15332682,-0.01646354,-0.25418827,-0.11640992},{0.07058398,0.03797191,-0.03867494,-0.11958324,-0.01836947}},{{-0.01045473,-0.01749542,0.1413798,0.07659528,0.05359337},{-0.07529588,0.1515134,0.1193849,0.11499275,-0.05076017},{-0.12078515,0.07806953,0.19466174,-0.0172986,-0.2258866},{-0.03067037,0.03981454,0.15263394,-0.14422463,-0.07759307},{0.01868739,0.12246827,-0.07919156,-0.13998969,-0.07573613}},{{0.03979024,0.02842048,0.06861815,-0.0078148,0.15381606},{-0.03861099,0.08004494,-0.08948934,-0.06602646,-0.05376285},{-0.12095907,-0.06228908,-0.05187457,-0.01784796,-0.13195474},{-0.10716023,-0.0313312,0.11182559,0.00014483,-0.06119257},{-0.0598609,0.01597193,0.09160586,0.05355676,-0.0313472}}},{{{0.15482025,0.11761282,0.00842008,0.07298999,0.11511381},{0.1291098,0.0651191,0.1413893,0.09925367,0.07456114},{-0.13101622,-0.10769345,-0.16480032,-0.01434965,-0.06534366},{-0.11454961,-0.06506759,-0.11130034,-0.11744986,-0.16920929},{-0.03444725,0.0478005,0.01961492,-0.11521182,-0.03440119}},{{-0.1042491,-0.19385217,-0.22168404,-0.22162139,-0.23040812},{0.00106491,0.12664047,0.14937052,0.12555119,-0.0060805},{0.1842435,0.27046698,0.15581596,0.21191809,0.22934926},{0.12259184,0.15855604,0.08578382,0.11130558,0.15943785},{-0.04399537,-0.1441109,-0.06819244,-0.01631027,-0.12453867}},{{0.07660089,-0.05133708,-0.03399364,0.01535963,-0.05483028},{0.06085135,0.11630172,0.09713944,0.00497488,0.12692156},{0.13448463,0.07254118,0.01644649,0.04697566,0.02790563},{-0.02626194,-0.13827974,0.01946296,0.0176088,0.06066148},{-0.09242661,-0.03835998,-0.18125291,-0.06174183,-0.05434142}},{{0.00361433,-0.09850837,-0.09502167,-0.00846895,0.01421294},{0.01285322,0.08549025,0.04054615,0.12787902,0.0966996},{-0.04286965,0.08110142,0.10622509,0.02026711,0.11942429},{-0.02450438,-0.12475531,-0.12306922,0.0507989,0.06628047},{-0.07960214,-0.06390047,-0.03423065,-0.14052594,-0.08691701}},{{0.04643486,0.08043271,0.04262353,0.02158622,0.01989065},{-0.00210348,0.09673072,0.1173882,0.07492461,0.13788675},{-0.0720396,-0.00554297,-0.09177487,0.05602364,-0.02183448},{-0.19527739,-0.18216887,-0.15811904,-0.13067116,-0.0621831},{-0.11845217,-0.12885715,-0.09451004,-0.08891164,-0.06938409}},{{-0.08480145,-0.17745824,-0.13157098,-0.19759694,-0.19147769},{0.15501499,0.06962089,0.03485378,0.11013886,0.13239522},{0.11297268,0.19539134,0.20521244,0.22326203,0.10647571},{-0.14757049,-0.13615736,-0.13945207,-0.09404885,-0.0159676},{-0.0640595,-0.13866407,-0.14297761,-0.19694777,-0.10959884}}},{{{-0.03250688,-0.09477583,-0.01086863,0.04384025,0.09505636},{-0.1957635,-0.01440037,0.01095933,0.01938906,0.09451839},{-0.06366154,-0.04935755,-0.04363624,-0.04233625,0.03086751},{-0.06961131,-0.04458138,0.01074036,0.00056092,-0.06830541},{-0.08447562,-0.05910806,0.01171979,0.06004084,-0.02591594}},{{0.02302107,0.0185249,0.01559591,0.13286915,-0.05017133},{-0.07876018,-0.1414053,-0.07637019,-0.10571478,-0.11982715},{-0.21236935,-0.25011995,-0.11897712,0.09726623,0.11314085},{-0.01776648,-0.07447575,0.0487494,0.20090492,0.27274585},{-0.00627092,0.06214466,0.06134736,0.1185539,-0.01714229}},{{0.07196183,-0.03227613,-0.04895425,-0.0538952,-0.06326644},{-0.01129793,0.0431106,0.02419656,-0.09131763,0.06252295},{-0.07597179,0.01470277,0.05741458,0.04095342,0.15592098},{-0.06708094,-0.01435316,-0.01815552,0.10505479,0.12458876},{0.03332881,0.09007501,0.03495388,0.03134169,-0.0229471}},{{0.09125651,0.00507711,0.04606748,-0.1503554,-0.11491187},{-0.03450653,0.05832409,-0.00027365,-0.02901574,-0.0577391},{0.02129798,-0.03088434,0.05978636,-0.02585134,0.03652965},{0.13105315,-0.00565814,0.11296251,0.08971907,0.04287254},{0.08827338,0.01293145,-0.04480722,0.01050436,0.02288635}},{{0.04113238,0.03419857,0.00506261,0.05555877,-0.10881883},{-0.02285707,0.06358741,0.0042888,-0.07373208,0.09653234},{-0.12048189,0.09792762,0.05863367,0.04110958,-0.03368559},{0.08396623,0.02295157,0.07988113,0.01456013,-0.02078656},{0.09365032,0.03935648,-0.0984122,-0.09220725,-0.09910521}},{{-0.01013026,0.06478841,0.02512349,-0.07478596,-0.06975726},{-0.07690851,-0.1091357,-0.09663007,-0.08813811,-0.0395855},{-0.1848513,-0.19035362,-0.11788902,0.05603051,0.05213628},{0.01157907,0.01263938,-0.02478058,-0.01747413,0.09609827},{-0.03107759,0.10091415,0.04190779,0.00769329,-0.01196861}}},{{{0.04426496,0.04974767,0.1083296,0.05845236,0.04110411},{-0.07784275,-0.02433652,0.07200424,0.09560826,-0.11335971},{-0.02786742,-0.08533865,0.0143688,0.15606174,0.05580275},{-0.09926562,-0.05395615,-0.01349896,0.13711357,-0.06906773},{-0.07486612,-0.15195496,-0.04668755,-0.06394659,0.00395143}},{{0.02389979,-0.07317418,-0.22910747,-0.1428839,0.0484856},{-0.0635849,-0.24238175,-0.32379109,-0.16617143,-0.12607457},{-0.21615982,-0.34149557,-0.28935742,-0.24170189,-0.11179408},{-0.10891078,-0.12237699,-0.13577226,-0.00118838,0.03861662},{-0.00316264,0.05451036,-0.07733278,0.05472665,-0.04585433}},{{0.09387053,0.06883787,0.13291423,0.14115743,0.0386795},{0.02484254,0.05012776,0.11878904,0.04594893,-0.00248337},{0.01781301,0.00589307,0.02971272,0.08470447,0.0467222},{-0.04485143,-0.09094778,0.0045087,-0.01180347,-0.07868209},{-0.05963464,0.0890587,0.08338895,0.00620272,-0.10895014}},{{-0.04321094,0.07149553,0.13825618,0.04081254,-0.03174302},{-0.02767836,0.03616536,0.17186488,0.06544755,-0.07111484},{-0.0361254,0.15448034,0.13296691,0.04793343,-0.21917342},{-0.11356153,0.10347091,0.06363545,-0.07369925,-0.12608701},{0.08770894,0.04452769,0.0212193,0.00110037,-0.07413913}},{{0.07843509,0.0842167,0.14178747,0.1190559,0.12349734},{-0.05205745,-0.03970678,0.19423692,0.18543559,0.06166987},{-0.0567612,-0.10908513,0.05848619,0.12854236,-0.08957903},{-0.07250213,0.00164649,0.15427348,0.07340701,0.00157311},{0.02941064,0.10559753,0.01136549,0.02772108,-0.16586657}},{{-0.02511646,0.05275061,0.018657,0.05709868,-0.09032331},{-0.03440353,0.0933027,0.04076899,0.00539309,-0.05480196},{0.02497381,-0.04080821,-0.08075275,0.04669499,0.01655978},{0.04830566,-0.02671018,0.03712393,0.07475641,0.0024433},{0.06060771,-0.05855815,-0.06437985,0.04407328,0.03161622}}},{{{-0.16297074,-0.12273525,-0.14664008,-0.09605223,0.02713947},{-0.09930237,-0.0288923,-0.03459376,-0.03827035,0.08908895},{-0.10010936,-0.02500799,0.07017259,0.07436293,-0.01905077},{-0.00963618,0.02566111,0.08226879,-0.07118295,-0.02037052},{-0.02904518,0.05751131,0.10047748,-0.00277185,-0.11821245}},{{0.09673543,0.06357549,0.00131063,0.01320195,0.02368708},{-0.13982856,-0.1590905,-0.05766007,-0.00670123,0.11132681},{-0.20805468,0.02286045,0.12235696,0.0711999,0.02882407},{0.0893304,0.17201006,0.19327231,0.10750823,0.04915525},{0.08821126,0.04942897,0.12004359,0.0337932,0.03459555}},{{-0.11732945,-0.03226478,-0.06379619,-0.03528986,-0.03924781},{-0.12762412,-0.11213789,0.02085973,-0.05662162,-0.03629352},{-0.16835655,0.03943319,0.08880225,0.03306882,-0.00708977},{-0.06646068,0.03551522,0.16595265,0.03710662,0.00880555},{0.03446574,0.06630815,0.07255446,-0.09009808,-0.10088913}},{{-0.07480434,-0.05934071,0.04825575,0.07990186,-0.03313101},{-0.18683282,-0.09784765,-0.01015517,0.08214299,0.10429472},{-0.10599069,-0.02787016,0.03571414,0.02472401,0.10502434},{0.10298991,0.15859596,0.1435637,0.083786,0.09485976},{0.17421629,-0.00472254,0.04172448,-0.11019702,-0.02026577}},{{-0.13459578,-0.18485293,-0.06868666,-0.07583564,0.05549744},{-0.17619371,-0.12057266,0.00380425,0.02260408,-0.01711256},{-0.13622779,0.01820719,0.10950799,0.04295756,0.10673981},{-0.01973241,0.05655908,0.06945115,-0.06754366,-0.12030603},{0.12109398,0.1535203,-0.05926176,-0.13027279,-0.13627528}},{{-0.15818414,-0.1274406,-0.12391519,-0.04726759,0.02271578},{-0.1399406,-0.26646861,-0.15861371,-0.14299867,0.00756054},{-0.09712349,0.0204294,0.02491971,0.11385828,0.01223797},{-0.12959823,-0.03090465,0.14829901,0.16023944,0.08831212},{-0.05982103,0.0335611,0.05215731,0.03184292,-0.04132985}}},{{{0.01991358,0.0287048,0.04003947,0.05707314,0.02914402},{0.09044044,-0.03324715,0.01957957,0.0771004,-0.06429146},{-0.01872639,0.06471492,0.01982641,0.13413838,0.10476332},{-0.0455216,0.01230396,0.02233552,0.0776019,0.14116199},{-0.12817718,0.06991352,0.03740487,0.02616662,0.09980981}},{{-0.13610776,-0.06327531,0.04893751,0.02133419,0.07899705},{-0.05232994,-0.13562241,0.02555687,0.02688904,0.07091813},{-0.04541764,-0.04984567,-0.00413329,-0.09732988,0.03983946},{-0.07282078,0.00097303,0.01979857,-0.00475826,-0.00671927},{0.01044161,-0.05286666,0.05177889,0.02569024,0.14514147}},{{-0.09206215,0.02655226,-0.04989601,0.07236176,0.07278824},{-0.02374786,0.05494224,0.03820936,0.05063048,-0.04203264},{0.07567494,0.06328201,-0.01683673,0.0054106,-0.07365131},{-0.02130042,-0.04929863,0.00883376,0.0363655,-0.05680263},{0.04909372,0.0182003,0.05339875,0.03981568,0.03372471}},{{-0.01069884,0.01840293,0.00525647,-0.08955853,0.03691132},{0.05219261,0.03747983,-0.00016458,-0.09802288,-0.03347551},{0.04642713,0.06167341,-0.04382779,-0.00706624,-0.09881938},{-0.05912281,-0.08106418,0.04618538,-0.05068209,-0.10814439},{-0.10361504,0.01238358,-0.00876471,0.08603919,0.0767931}},{{0.00445465,0.11630846,0.02803983,0.02896472,0.02164667},{0.0845021,0.09935314,0.032385,0.02608082,-0.0135356},{0.09032371,0.04459864,-0.00104467,0.08829424,-0.07493358},{-0.03744212,0.05078245,-0.03396692,-0.04742979,0.0831717},{-0.10860179,-0.01363548,0.05836719,-0.06367785,0.00737214}},{{-0.02908535,-0.00842154,-0.07264747,0.06738877,0.04814584},{-0.02369538,-0.08229539,0.01521855,0.0730648,0.0430941},{0.04049318,-0.07115542,-0.0540329,-0.06432532,0.01782987},{-0.07858956,-0.08487084,0.08297487,-0.02813315,0.09119477},{-0.15196761,-0.04571804,0.04388809,-0.017571,0.00507169}}},{{{-0.07691129,0.03311021,0.02448122,-0.10826909,0.00910551},{0.0181573,0.07725791,-0.07247087,0.04046782,0.07034336},{0.09479508,0.19642229,0.2301501,0.11347502,-0.04845965},{-0.03477418,0.08645658,0.20188037,0.0431513,0.01451691},{-0.05268197,-0.14730917,0.05352721,0.08753747,-0.07536627}},{{-0.13425665,-0.00801988,0.08370865,0.07869878,0.10875628},{-0.15079518,-0.11223468,-0.05131754,0.03548466,0.08080751},{-0.09539717,-0.15996948,-0.18223503,-0.11170559,-0.10552344},{0.19554459,0.10399467,0.12437902,0.16612272,0.12909271},{0.17502561,0.0924853,0.17897211,0.1927954,0.04190572}},{{-0.00655661,0.08504064,-0.00326214,0.0395346,-0.10007412},{-0.08930164,-0.02895994,0.05153167,0.03165185,-0.13100158},{-0.08505911,-9.273e-05,0.03531985,-0.0209749,-0.03472833},{0.00258262,0.01265603,-0.0467677,-0.00546072,0.08136713},{-0.09830827,0.02322532,0.09912938,0.03780364,0.00018429}},{{-0.03550369,0.02775075,-0.03515511,0.05837407,-0.04790087},{0.04840741,-0.0133584,-0.11019081,-0.13569437,-0.01532145},{7.96e-06,0.04382195,-0.05474528,-0.04610252,-0.03230517},{-0.00191944,0.10890952,-0.02014299,-0.00013304,0.00227883},{-0.12161157,0.0782557,0.05215601,0.09957913,-0.01835121}},{{0.08860816,0.01961928,-0.06682245,0.02680279,-0.01505833},{0.01318485,-0.00103206,0.04038365,-0.09415127,-0.11786244},{0.01036559,0.09787415,0.05962634,-0.05684378,-0.00107055},{-0.00361083,-0.1154284,-0.02320406,0.07350191,0.10069332},{-0.19396032,-0.16607295,-0.09453893,0.04630291,0.07773918}},{{-0.19603288,-0.11068354,-0.06648553,0.01607356,0.08833204},{-0.21479903,-0.05580789,-0.07122923,-0.04561074,-0.12998429},{-0.01147888,0.08102609,0.06778935,-0.06132074,-0.0800098},{-0.05717638,0.08446305,0.20683585,0.15231103,0.02955075},{-0.03812088,-0.07877376,0.17809926,0.05675614,-0.01726665}}},{{{-0.08094756,-0.10894643,-0.03919229,0.00089162,-0.04162255},{0.03554225,-0.11614044,-0.16904046,-0.20362324,-0.08401448},{0.11008774,0.20139842,-0.04963511,-0.032682,-0.09711239},{0.04893834,0.22010839,0.24103777,0.17196062,0.0440818},{0.10291534,0.13498703,0.23237407,0.17308737,0.11518919}},{{-0.08319449,-0.02298564,0.0152455,0.03565661,0.02537207},{-0.05131522,0.02329518,0.0595302,0.23603503,0.19791926},{-0.16841008,-0.27323875,-0.17041709,-0.00265934,0.04424833},{-0.00214333,-0.22432591,-0.2277583,-0.1861631,-0.1842308},{-0.06936074,0.05663581,0.10208333,0.01983497,-0.03638111}},{{0.05546693,0.03048346,-0.11416379,-0.02787715,-0.07766955},{0.05787373,0.01209854,-0.02316548,-0.03396573,-0.04529111},{0.00806545,-0.07623046,-0.10518144,-0.04571927,-0.05627938},{-3.827e-05,-0.04894223,0.05278423,0.009273,-0.04782894},{0.06289688,0.00612871,0.06401319,0.10452412,0.11940406}},{{-0.0968101,-0.01160171,-0.05989673,0.10786278,0.07937163},{0.03640794,-0.05845593,-0.12076744,0.00694842,0.10980077},{0.02080559,-0.01038578,-0.1601712,-0.15669605,0.02236903},{0.11870416,0.0591838,-0.13959835,-0.13345687,-0.04770007},{0.02978879,0.05033658,0.09478074,0.12799802,0.04909014}},{{0.05173228,-0.03384844,-0.13053676,-0.09988022,0.02378586},{0.16098508,-0.01065395,-0.09748615,-0.15801862,-0.06435263},{0.15785162,0.09020311,-0.05282072,-0.05229766,-0.12266472},{-0.07247895,0.09089735,0.14691977,-0.02082006,0.06380076},{-0.01174901,0.04869767,0.16167623,0.05818284,0.12502071}},{{-0.21833354,-0.15081739,-0.00285774,0.09932517,0.08685409},{-0.06436674,-0.07011728,-0.10326951,0.06622559,0.12637681},{0.03435833,-0.03149229,-0.23020309,-0.22677426,-0.12889101},{0.00426731,0.16301043,0.0516227,-0.149483,-0.23473378},{-0.01307542,0.18379736,0.19669521,0.11430839,0.0341524}}},{{{-0.04346867,-0.07991109,0.01137402,0.05585146,0.01359283},{0.12473723,0.02245852,0.00378042,0.10877464,0.09516007},{-0.05564625,0.04431634,0.05011988,0.10853589,0.05779062},{-0.0789632,-0.11008688,-0.07615806,0.0255955,0.1283865},{-0.02823977,-0.02524559,-0.20982735,-0.12510417,0.03673632}},{{-0.02554984,-0.06656609,0.0074593,-0.06786423,0.00236717},{0.09814636,-0.11202406,-0.10641715,-0.09344787,-0.01817348},{0.12181245,-0.06977336,-0.13259368,0.01059626,-0.01065443},{0.11530629,0.10433414,0.17147075,0.0345462,0.04533592},{-0.04833069,0.10260279,0.1312165,0.1028922,0.17188703}},{{-0.06516868,-0.06484507,-0.03128219,0.10010611,0.02267602},{0.02347637,0.04598527,0.00695013,-0.02511416,0.10554273},{-0.02746343,0.07548064,-0.02311468,0.0540507,0.06218868},{-0.02872222,0.00782422,-0.03060201,-0.08049007,-0.05592736},{0.01947444,-0.11406456,-0.13752644,-0.01958228,0.02928143}},{{-0.13975723,0.02412703,0.064652,0.11245143,-0.08218701},{-0.03149373,0.02741778,-0.04303249,0.06050845,0.01553589},{0.08351444,0.03347478,0.10463904,-0.02691896,-0.05655307},{0.0480283,0.07041802,0.00729838,0.07182205,0.1333214},{-0.11179195,-0.15685454,0.00421254,0.03072942,0.13089725}},{{0.01283321,-0.02128545,-0.04597468,0.05595028,0.06899039},{0.09363937,0.06805867,-0.01678766,0.07168622,-0.03392023},{0.09790316,-0.01433988,0.01076486,-0.0264754,0.11265009},{-0.04669878,-0.16464691,-0.08423188,0.00300465,-0.0033332},{-0.02758119,-0.12595885,-0.21191163,-0.21658713,-0.10558444}},{{0.01013768,0.00865503,-0.04465643,-0.08206713,0.10519686},{0.0518615,-0.04879604,-0.00564076,0.01007244,0.05258537},{0.08166382,0.06473982,0.00866523,-0.06894979,0.00333632},{0.12380839,0.13024001,0.08881184,0.03675774,0.11006977},{-0.12262797,-0.20853527,-0.21177673,0.01177,0.0985251}}}};
/*__attribute__((section(".weights")))*/ static float conv2_bias[16] = {-0.042519,-0.06355388,0.07355416,0.08866715,0.00771626,0.03425649,-0.01429584,0.0026086,0.0472654,-0.01922461,0.02927563,0.01646532,-0.00118823,-0.01288662,0.03926651,-0.00084108};


// Convolution layer 3 ------------------------------------------------------------------------------

/*__attribute__((section(".weights")))*/ static float conv3_weights[120][16][5][5] = {{{{0.02991931,-0.02340928,-0.02846072,0.01024176,-0.042771},{0.02784191,-0.04175533,-0.04545148,-0.00933698,0.01009197},{0.01781616,-0.01781136,-5.89e-06,-0.03123572,0.0299427},{-0.026887,0.03733975,0.02238866,-0.04259597,-0.05663893},{-0.05792468,0.02101963,0.0318689,0.01570842,0.02867733}},{{0.01941523,-0.01601071,-0.0516868,-0.00808077,-0.0467207},{-0.04688385,-0.01787652,-0.05580209,0.0003259,-0.04032153},{0.00961131,-0.04627375,-0.0426204,-0.05507281,-0.00930651},{-0.00589854,-0.04722422,-0.04650547,-0.00703942,-0.03166329},{-0.01346942,-0.0133108,0.00845198,-0.05688,-0.05885076}},{{-0.0555389,-0.05540613,-0.04965489,-0.03855729,0.03034782},{-0.05943567,0.01729386,-0.03983605,-0.0487024,-0.04701462},{-0.05048004,-0.01581581,0.0252823,-0.03347921,0.02773377},{0.00666869,-0.01392268,0.02296688,-0.00424376,-0.06042557},{-0.02987995,0.03227612,-0.04252749,-0.00922983,-0.03134094}},{{-0.05161425,-0.00298473,-0.03529473,-0.00888598,-0.0086194},{-0.01492172,-0.05460179,-0.01954212,0.00641066,0.0255258},{0.01115227,0.02525859,-0.05056679,0.00530622,0.00844237},{-0.04866317,-0.04001052,0.03155429,-0.03640499,0.02112873},{-0.04216133,-0.04624127,0.01707715,0.00184935,0.00314585}},{{0.01853332,0.02836654,-0.05367368,-0.01566924,-0.02132359},{-0.02029459,0.0091217,-0.02063945,0.02826147,-0.0338066},{-0.02331098,-0.03546521,0.01505777,-0.00181302,0.0262598},{0.02350259,-0.00163338,-0.03591159,0.03027437,0.01219058},{0.01295533,-0.01659844,-0.04279952,0.00733114,0.00852114}},{{-0.04109138,-0.0190698,0.00078074,-0.05956231,-0.00498808},{0.01278007,0.00902312,0.02206,-0.05297295,0.01281633},{-0.04680351,-0.0031415,0.00962608,0.02859961,-0.0283659},{-0.04938051,0.01374543,0.0296747,0.01701732,-0.02430335},{-0.00591088,-0.05390652,-0.00375133,0.00147832,-0.02992818}},{{0.03192823,-0.04019681,-0.03719769,0.00685187,0.03288813},{-0.05320546,-0.03661119,-0.01449084,0.01677521,0.03190935},{-0.03403113,-0.0153152,-0.04145002,-0.04706157,-0.0288292},{0.02017838,-0.05019993,0.00223421,-0.02024849,-0.02789382},{-0.02299397,0.01512496,-0.05933006,-0.04002231,0.00138302}},{{-0.01895877,0.00235184,0.00130618,0.00768659,-0.04686856},{0.01597076,-0.03859563,0.0151934,-0.04433829,-0.01154948},{-0.00866821,-0.02352609,-0.04002758,-0.01556494,-0.01461772},{-0.01868858,-0.03544204,-0.05031059,0.03506005,0.01713424},{-0.02988601,-0.02998925,0.00257162,-0.00618144,-0.02770493}},{{-0.0590265,-0.001919,0.01320172,0.03213622,0.03807214},{-0.00490235,0.02499655,0.03827695,0.03492159,-0.02789445},{0.04873359,-0.04424803,-0.01975624,-0.05860574,0.01265488},{-0.03143254,-0.05111599,-0.06048167,-0.0256555,-0.00727542},{-0.05508222,0.01121613,0.01268131,0.02580962,-0.03584516}},{{-0.05333764,0.03257905,-0.02476885,-0.01483236,-0.00490634},{-0.03828168,0.00122201,-0.04207257,0.01246024,-0.02466957},{0.02886332,0.01829009,-0.00139422,-0.06044897,-0.02671783},{0.03670765,0.03056477,0.03402796,-0.00333407,-0.03335273},{0.03086002,0.02007284,-0.05557877,0.02683257,-0.05954088}},{{-0.04139445,-0.02736691,0.01158906,0.01369761,-0.01396671},{0.03489525,-0.00855168,0.01566312,-0.03745823,0.00636824},{0.02033477,0.03788798,-0.01025211,0.00279159,0.03039757},{0.02138889,-0.0227202,0.03014887,0.02930564,-0.05862126},{-0.00322736,-0.02593721,-0.01519866,-0.05600136,0.00020392}},{{0.01117885,-0.01864353,-0.05863064,-0.02555553,0.03509227},{0.01973396,-0.03008425,-0.04349383,0.0056383,0.02123539},{-0.00742483,-0.01018423,-0.00249344,0.01885339,0.03702348},{-0.04312284,0.02022875,-0.00793188,0.02195801,0.01565658},{-0.05301276,-0.03609381,-0.00815625,0.02874336,0.03829231}},{{-0.0393395,-0.03657912,-0.00879786,-0.0065008,0.0196769},{-0.03988773,-0.05892906,0.00533284,-0.05292078,-0.00556089},{-0.02531538,-0.01866546,-0.05460623,0.03825272,-0.04133558},{0.01935659,-0.01276956,-0.0118322,0.00570473,-0.00763081},{-0.0050606,0.01246387,0.02606514,-0.03977434,-0.01144175}},{{-0.00260974,-0.02215042,-0.00567401,-0.00700002,-0.02376599},{-0.03601323,-0.02272418,-0.02578073,-0.04879842,-0.06044976},{-0.0607977,0.01698726,0.00788259,0.03323355,0.0138801},{-0.04070206,-0.04967364,0.02272538,0.02573025,0.00895117},{0.00016981,-0.0143952,-0.03249566,0.03620447,-0.00787859}},{{-0.0164995,-0.04121607,-0.0392585,-0.03562143,-0.00538858},{0.01583583,-0.00830144,-0.02215113,0.02917875,0.02847583},{-0.04942417,-0.01697131,-0.04014277,-0.00746533,0.03212318},{-0.00863003,-0.04939133,-0.04665643,-0.03917893,-0.05373713},{-0.03777031,0.00376529,0.03683967,-0.00741133,0.02462046}},{{-0.04160512,-0.04575184,0.01229326,-0.00724213,0.00414032},{0.03058223,0.03667915,-0.06006665,0.01187534,-0.01506674},{-0.05622562,-0.04297109,-0.04127034,0.03278901,-0.04368309},{0.00802019,-0.02206923,-0.03475457,0.00330598,-0.01534531},{-0.00217173,-0.02120523,0.00644647,-0.0102944,0.00245093}}},{{{0.00246997,0.00546839,0.04193858,-0.01578407,0.00825828},{0.00981393,-0.03912267,-0.05119037,-0.01067309,0.02068252},{0.05391673,0.00965876,0.02038358,0.00799074,-0.05353678},{-0.04949672,0.05408365,0.00080929,0.04532242,0.0166428},{-0.01644773,-0.00275543,-0.01163744,0.05871904,0.08166923}},{{0.10640103,0.12795454,-0.03144342,-0.03319243,-0.10449767},{0.09789108,0.05522623,-0.06525019,-0.08283404,-0.18280044},{0.02428767,0.04712136,0.05733873,-0.00800696,-0.00212007},{-0.0011957,0.0002098,-0.02437592,0.0247981,0.13546349},{-0.12684387,-0.00683325,-0.06341512,0.07249439,0.07449269}},{{-0.23074761,0.06046722,0.08721225,0.1494208,0.14929168},{0.03850723,0.06393279,-0.03079895,-0.01146203,0.11716881},{-0.00624163,-0.08006734,-0.00920857,-0.01573732,-0.04401521},{0.04403519,-0.01838353,-0.00166997,-0.07318975,-0.13479263},{0.04381091,0.09506307,-0.00323312,-0.03084444,-0.03338899}},{{0.14229985,0.02581768,-0.0784748,0.06547898,-0.04059374},{0.01635678,0.05744826,-0.00582183,-0.13530709,-0.24772488},{-0.0698563,-0.03378779,0.01925768,-0.0175032,-0.10041172},{-0.09065697,-0.13134134,-0.0853112,0.04613247,-0.01289684},{-0.1586515,-0.19267508,-0.02989226,0.08680242,0.02572117}},{{0.04419805,0.06003084,-0.05782335,0.03499481,0.06074603},{-0.01505955,0.02744618,0.01618496,-0.12341739,-0.21927188},{-0.06945352,0.01081533,-0.01297998,-0.03049512,-0.10636568},{-0.06784602,-0.09449668,0.00641278,0.02696917,0.07104678},{-0.07454364,-0.17907244,-0.00093125,0.09522945,0.11481763}},{{0.09701762,0.08108751,-0.00473518,-0.00783273,-0.02124636},{-0.06464194,-0.03926073,-0.04573558,0.01886331,0.07609427},{0.08655512,0.0854029,-0.01433571,0.01427509,0.04638683},{0.02892059,0.03505966,-0.02073578,0.07090715,-0.00052782},{-0.01401579,-0.00101489,0.04172987,0.00662255,-0.01470971}},{{0.12016364,0.03767644,-0.02382217,-0.11663889,-0.04445507},{-0.00568295,-0.05706736,-0.07542913,-0.04819702,-0.02611762},{-0.12213756,-0.01107896,-0.05168554,-0.09529393,0.00914287},{-0.07474322,0.01634963,0.04290267,0.05378596,0.05103017},{-0.04831231,-0.07668944,0.02074836,-0.01704035,0.03219827}},{{0.0032136,0.10005037,0.11604549,-0.08398089,-0.05733713},{0.0913227,0.05641993,0.02603231,-0.12432296,-0.08302736},{-0.05758371,-0.05100858,0.02057397,-0.02435311,-0.04185188},{-0.18376862,-0.11206598,-0.05056885,0.00064051,0.08117072},{-0.22219768,-0.14487432,-0.04644445,-0.02388849,0.05606972}},{{-0.0028571,0.02717279,0.07923765,0.07764459,0.1048232},{0.08359604,0.04974807,0.03929953,0.0664503,0.19383605},{0.0249952,-0.00543458,0.06357217,-0.01190171,0.06340507},{0.07212026,0.09255844,0.03776939,-0.04094646,-0.06148852},{0.02669354,0.06526186,0.07585105,-0.02034289,-0.00905896}},{{0.08381318,0.04981472,-0.01944434,-0.05648009,0.13270891},{-0.0929772,-0.06960323,0.07928323,-0.02658859,0.02392282},{-0.02943424,-0.00839456,-0.04846626,-0.08538905,-0.1624715},{0.0886006,-0.03676111,-0.00630753,-0.02470546,-0.07795176},{0.04731981,0.00183844,-0.00558265,0.11800165,0.08127188}},{{0.1124954,0.04967092,0.02185075,-0.03800531,-0.09902483},{0.07830425,0.00950843,-0.01986852,-0.16338477,-0.22581078},{-0.01331761,-0.01088709,-0.02485918,-0.05072941,-0.00796289},{-0.07500637,-0.06683043,-0.00943078,0.0048889,0.14980024},{-0.18556143,-0.09199157,-0.01245174,0.10709234,0.17184435}},{{0.04884748,0.02529135,0.00453596,0.04133087,0.0938293},{-0.0895237,-0.10210433,-0.05068605,0.0991552,0.18618529},{-0.07866767,-0.04694426,0.01441847,-0.07868154,-0.16101031},{-0.02728269,-0.00468454,-0.04249274,-0.05171013,-0.08663588},{-0.02990636,0.11779759,0.08368413,0.026714,-0.01276579}},{{0.04216955,0.02674819,0.00709264,0.00801201,-0.0719059},{0.01633568,0.08122285,-0.04259672,0.0042826,-0.08035286},{0.0296512,0.02074219,-0.03666914,0.02973883,-0.03933565},{0.08803958,-0.00166627,0.01658622,0.03981847,-0.0160857},{-0.02541894,-0.05797325,0.00319085,-0.00780894,0.0879165}},{{0.039908,0.02787249,0.01822767,-0.06441151,0.03160778},{0.00410878,0.01877019,-0.02762303,0.02659805,0.05097596},{0.04214293,0.03922091,-0.06130379,0.00991575,0.05234133},{-0.00149087,0.02045775,0.02209296,0.01482171,-0.01205949},{0.0012463,0.00374564,0.03622049,0.0313705,-0.06529766}},{{-0.07460674,-0.04919546,-0.05837638,-0.10037955,-0.09709264},{-0.05790075,-0.07584751,0.060048,-0.02677304,0.03817327},{0.02501045,0.05924146,0.02066509,0.09709304,0.06010967},{0.08289005,0.03577027,0.09662932,0.08988225,0.07551795},{0.11499021,0.06517889,0.08416423,-0.03232926,0.00445739}},{{0.07964576,0.08983012,0.06416468,-0.01883721,0.03502588},{0.00229797,-0.01076204,-0.06197217,0.08325888,0.10365508},{0.03519002,0.04268693,0.02819407,0.02281604,-0.01669239},{-0.00537639,0.03212031,0.05488452,0.05825486,-0.09903662},{0.04997789,0.04606857,-0.00029823,0.09844037,0.03564204}}},{{{0.04463358,-0.01923645,0.11846356,0.09532534,0.09544399},{-0.04924255,0.0147079,0.10118078,0.11330813,0.06904715},{-0.01107615,-0.05636792,0.00917452,0.04344683,-0.05970181},{-0.00104682,-0.04788675,-0.04835578,-0.02047122,-0.06563456},{0.11706213,0.05810918,-0.0375203,0.02880259,0.00929515}},{{-0.05466651,-0.12427053,-0.04852567,0.04910985,0.06757081},{-0.05107158,-0.05145286,0.03473992,-0.02538517,0.04894255},{-0.00808212,0.02100771,0.05960569,0.02095488,-0.04423757},{-0.0639153,-0.0290789,0.05669625,0.01615349,-0.02344385},{-0.07123346,-0.07024755,0.00464396,0.01915031,-0.02504677}},{{0.08714802,-0.11129335,-0.05114324,-0.10786261,-0.08127402},{0.02033782,0.02742681,-0.03009915,0.00117571,0.08015731},{-0.04840019,-0.02180624,0.0468851,0.14198588,0.11266494},{0.04256599,0.04326783,0.08491362,-0.03571309,-0.05293608},{0.03062162,0.06910026,0.02038058,0.09826373,0.01990736}},{{-0.05956648,-0.07881343,-0.09851375,-0.0059536,-0.09755864},{-0.02022157,-0.04934386,0.08080779,0.02778461,0.02325221},{-0.08861343,-0.00126228,0.01356173,-0.02507717,-0.03631341},{-0.01800501,-0.10574016,-0.06471288,0.06715633,0.04046332},{-0.00227744,0.0104778,0.08093344,0.07785948,0.12337206}},{{-0.06355732,-0.08495512,-0.05604683,-0.05414631,-0.08174569},{-0.05344743,0.02802612,0.08850982,-0.03962822,0.06367872},{-0.03307492,0.0289837,-0.0303916,-0.05638989,-0.04474823},{-0.04913852,-0.05453637,-0.00364651,0.04532461,0.08653986},{-0.00587709,0.037724,0.03736724,0.11378723,0.1615109}},{{-0.01758483,0.08022819,0.0708039,0.14761636,0.00770976},{0.0624279,0.01981586,0.05421035,0.01618298,0.01403614},{-0.03041396,0.08373076,0.06831334,0.04163665,-0.0259095},{0.01550301,0.02984247,0.0623313,-0.03733695,-0.02285937},{0.00594996,0.01900331,-0.02469071,-0.10298,-0.12575492}},{{-0.04556465,-0.03223509,-0.04534607,-0.00123093,0.03625691},{-0.03760093,0.04558454,0.03654859,0.09137933,0.06675702},{-0.06252126,0.02811604,0.05866193,0.00096984,0.0242032},{-0.03244686,-0.08692304,-0.03686857,-0.03285434,0.0098784},{-0.07745011,-0.0137739,0.0323878,0.02558257,-0.0017712}},{{-0.07758216,-0.18664841,-0.10104953,-0.03700747,0.04450004},{-0.05156655,-0.02563434,-0.03264431,0.07055199,0.07381213},{-0.07164839,0.00050449,0.00336751,0.07019813,0.02334521},{-0.15620512,-0.1320921,0.06889973,-0.00262522,0.00632734},{-0.07682473,-0.05148619,-0.00652926,0.05513738,-0.04768358}},{{0.06154946,0.01139814,-0.02629028,0.03835763,-0.1307933},{0.05962508,0.07776865,0.07035045,0.00468978,0.03874981},{0.06412093,0.09960341,0.05577799,0.07398744,-0.02626219},{0.05092981,0.02105745,-0.03052049,-0.05761201,-0.1336367},{0.03472495,0.01566039,-0.02690835,-0.07664289,-0.08946443}},{{0.09243528,0.0415408,0.07624334,-0.0087546,-0.02997311},{0.01907312,0.00361302,0.06333555,0.1226532,0.12347721},{0.01429882,-0.03632187,0.05891763,0.01988981,-0.03899382},{-0.0393414,0.00281668,-0.07237942,-0.0414669,0.02310804},{0.05393495,-0.05384407,0.01910213,0.03867949,0.00034545}},{{-0.03539329,-0.06625021,-0.02746678,0.03537992,0.11043528},{-0.09451442,-0.09054109,0.02491599,0.10257421,0.06126166},{0.00310767,0.03573829,0.11975284,0.01541555,0.0589751},{-0.01850632,-0.06923104,0.01373887,0.07913083,0.09807245},{-0.07749008,-0.02742961,0.0685052,0.01650328,0.0530121}},{{0.01768978,0.02895256,0.0649638,-0.1054095,-0.13062049},{-0.00897714,0.09731667,0.02128931,0.01071236,-0.11364508},{-0.02850006,0.01260464,0.10820296,0.04401207,-0.06053738},{-0.07265712,0.0828694,-0.01229539,0.01005131,-0.11656003},{-0.06504849,-0.01945107,0.00478463,0.02810453,-0.00405058}},{{0.0025725,0.04382854,0.00636082,0.09813187,0.09050503},{-0.03380099,-0.00269028,0.03130484,0.09897964,-0.00844884},{-0.02651154,-0.02932929,0.03566556,0.06269659,-0.02375826},{-0.01432185,0.01478349,-0.01267826,0.01346281,0.01579512},{0.08874881,-0.01492187,-0.00202726,0.00872213,0.01979634}},{{0.0624322,0.01376677,0.07876068,0.04187601,0.03595291},{0.01214151,-0.01779639,0.04133687,-0.02148087,0.01565567},{-0.11422788,0.01783559,0.0406445,0.02968645,-0.03282134},{0.04509419,0.05047178,0.01681951,-0.0806219,-0.07413005},{0.14340724,0.04273931,-0.02522175,-0.01619177,-0.07949224}},{{0.07571111,-0.02603072,0.01285499,0.01081643,0.0183273},{-0.07667924,-0.11627122,-0.06507121,-0.07932734,-0.00571456},{0.05888588,-0.01189227,-0.111754,-0.03416762,-0.00098557},{0.16661824,0.08564776,0.0236591,-0.03191637,-0.04106308},{0.19340512,0.12695409,-0.08126741,-0.0899979,-0.0761199}},{{-0.06435294,0.05860869,0.02447366,0.07177384,0.01238821},{0.07192726,0.04476208,0.07002978,0.04980884,0.00867059},{0.00752873,0.04463593,0.09736715,0.01631735,-0.0016167},{0.0159057,0.0028999,-0.02051995,-0.0613912,-0.02999749},{0.01012444,-0.01703546,-0.01452587,0.00746294,-0.04281835}}},{{{-0.12706259,-0.01538928,-0.05175885,0.01516173,-0.06149645},{0.00597834,-0.05003256,-0.03588501,0.02272888,0.01930992},{-0.0022864,0.03214509,0.0570875,0.05149988,0.09636959},{0.02620254,0.06651035,0.02058,0.07051356,0.02683513},{-0.04949939,-0.03872392,0.0006814,0.01312959,-0.04394382}},{{-0.03387904,-0.05397489,-0.03355384,0.0328779,-0.0186466},{0.0070309,-0.01449987,-0.02737062,-0.02722258,0.01681531},{-0.05433503,-0.01625914,-0.05643163,-0.00967109,0.00558791},{0.05460962,0.0109383,-0.03530591,-0.03794317,0.0691345},{0.04890891,0.03134848,-0.04415496,-0.04666759,0.02627043}},{{0.17145741,0.10278235,0.04366206,0.12423062,0.03329052},{0.06028013,-0.09340809,0.03298569,-0.00716276,-0.03055197},{-0.0276579,0.0110898,0.02402953,-0.09349763,-0.04603901},{0.04392431,0.0001926,-0.0047827,-0.02023729,0.1001097},{0.10128682,0.11264988,0.05967538,0.08153976,0.072018}},{{-0.05108864,-0.07200651,0.02771448,0.02176089,-0.05783694},{-0.02312125,-0.0052771,-0.0136408,-0.01116005,-0.02443023},{0.06036776,-0.00702702,-0.0598145,0.03804989,-0.05006306},{0.00571418,-0.00891756,-0.02526963,0.05901168,0.03695836},{-0.04391774,-0.10106879,-0.0923156,-0.0317618,-0.02786855}},{{-0.06375799,-0.01252862,0.09800473,0.01107609,0.02341567},{-0.01707765,0.02832451,0.00819772,-0.01010168,-0.04490806},{0.0224284,0.00999561,-0.03998052,-0.01515342,-0.00595138},{0.00258792,-0.0061946,-0.12053983,0.02156178,0.02994596},{-0.00954377,-0.08015184,-0.14048348,-0.10179996,0.07023907}},{{-0.08708704,-0.05631635,0.02321356,0.00150838,-0.01596333},{-0.01846847,-0.10606229,-0.02544092,-0.00229004,-0.03927227},{0.00269212,-0.05080696,0.04833889,0.08347693,0.09602845},{0.07226965,0.02233722,0.02031296,0.1036188,0.13866356},{-0.01410625,0.01909451,-0.02369382,0.01837488,0.00878212}},{{0.00618473,-0.0437265,-0.065788,-0.04137658,-0.06046908},{-0.0342783,-0.04884012,-0.06333937,-0.04095306,0.01484652},{0.00027033,-0.04647492,-0.03086852,0.01390257,0.08526058},{-0.00296224,-0.04470284,0.01211885,0.08625723,0.11694555},{0.03383317,-0.04363976,-0.0002257,0.03037656,-0.03098443}},{{0.08027823,0.09759537,-0.01610217,0.04836759,-0.01949611},{-0.04212951,-0.01915224,0.03872849,-0.02879183,-0.10257296},{0.02013618,-0.02912187,0.03530273,-0.09030023,-0.06051249},{0.07545117,0.02326315,-0.01694338,-0.03359843,0.00909482},{0.00554618,-0.02405955,-0.00261744,0.07320214,0.06511514}},{{0.02958624,-0.00289201,-0.03512762,-0.0173354,0.08318882},{-0.07932444,-0.12749049,-0.01101733,-0.09605857,-0.02448925},{-0.11157715,0.01153928,0.03349027,-0.05361794,-0.09130706},{0.04684116,0.07705478,0.09480324,0.09249379,0.14446275},{0.05131209,0.03724502,0.07855482,0.08193721,0.05604311}},{{-0.05051215,-0.0694831,-0.00452802,0.00292029,-0.05920668},{-0.01552608,0.01868165,-0.04139693,-0.06725979,-0.00612319},{0.09290294,0.04666654,-0.04569906,-0.0449237,0.00502635},{0.05441601,0.04166153,0.02408741,-0.03620766,0.09213145},{-0.01545443,0.04575896,0.01176564,-0.01607713,-0.00495046}},{{0.0395615,-0.06199595,0.07419485,0.05540671,-0.05444679},{-0.04227679,0.03521476,-0.00123103,-0.02467812,-0.03674836},{-0.03024119,-0.03425848,0.00228968,-0.03257541,-0.01399614},{0.07310564,0.06333027,0.02618648,0.00573309,0.07261433},{0.03931312,0.0211632,-0.03813233,-0.02706833,-0.00324738}},{{-0.05144703,-0.08403189,0.02480331,0.05050631,-0.04871907},{-0.00749501,-0.0488924,0.13964425,0.06068247,-0.07342329},{0.05259256,0.04749386,0.08471496,0.00562828,-0.07678492},{-0.00124714,-0.10168427,0.02567765,-0.03306573,0.00498041},{0.02696238,-0.07523129,-0.00515354,0.00038822,-0.05879448}},{{-0.0345744,-0.02799985,-0.01689911,-0.06179132,-0.05435478},{0.02042429,-0.01305293,0.01384819,0.01445822,0.01189044},{-0.03774763,-0.01097812,-0.00534132,0.00917236,0.03923711},{0.0535106,0.03742248,0.02663671,-0.02629857,0.02797422},{0.05976948,0.00904364,-0.03860603,0.02713287,-0.00123517}},{{-0.09460204,-0.00114446,-0.04643744,0.03354381,-0.06531579},{0.01867506,-0.00807833,0.00087295,0.06949516,0.04289565},{0.03683163,-0.03356968,0.0202945,0.04184461,0.02956912},{0.03487184,0.0179043,-0.02105814,0.00740913,0.06076713},{-0.04813723,-0.0478553,0.00841563,-0.05894966,0.051858}},{{-0.05578369,0.03022268,-0.01620792,-0.02179695,-0.05753347},{0.05332606,0.02926578,-0.01194187,0.11047657,0.0734193},{-0.01037913,0.02840097,0.06660563,0.12291657,0.09492757},{-0.03977388,-0.05971368,0.00269475,-0.07738687,0.0046766},{0.00914009,0.01599142,-0.04941633,-0.13282143,-0.07890194}},{{0.02078456,-0.03494808,-0.04751013,-0.06799006,-0.05902489},{-0.05133241,-0.01306081,-0.06242466,0.02034737,-0.01804158},{-0.0450127,0.04156898,-0.01774372,-0.00933386,0.01927014},{0.04936834,0.1034591,-0.03755482,0.08147102,0.1209918},{0.00638928,0.01791288,0.00060697,0.07239147,0.00762553}}},{{{0.01056807,-0.03399151,0.00647219,-0.02534871,0.00154725},{0.02536722,0.05397206,-0.01690856,0.04377599,-0.03532834},{0.00337113,0.02715246,0.01764885,-0.00084209,0.10242721},{-0.04190358,0.05338911,0.06720313,0.013466,0.09464309},{-0.06954052,0.03348243,0.02999889,0.03364224,-0.01011874}},{{-0.01894891,0.06119105,-0.0315239,-0.03135884,0.03292015},{-0.03094891,-0.00888798,0.0534117,-0.06293068,0.0306245},{0.01333763,0.05281818,0.07113223,-0.07411474,-0.03827775},{-0.01181517,-0.01868471,0.07027706,-0.03116204,0.0012521},{0.04247151,0.09214965,0.02479718,0.00174118,0.02662595}},{{0.01782943,0.05679985,0.06982613,0.03617097,0.01799908},{-0.05747004,-0.0489068,0.00233605,-0.00201488,-0.04421163},{-0.04171838,0.01170331,-0.04033243,0.06218833,0.01531508},{-0.10284635,-0.03403154,0.06686921,0.06147584,0.10030247},{-0.07547362,-0.1114008,0.00907529,-0.01902644,-0.02012559}},{{0.0200849,0.07421631,0.03132282,-0.0054095,-0.02015674},{0.00545027,0.02082899,-0.01142437,0.00682222,0.06610987},{0.07370196,0.03308476,0.1067062,-0.0339555,0.02155828},{0.04735557,0.10667137,0.01678517,-0.06287889,-0.00076908},{0.05641921,0.08276292,-0.08614749,-0.15143327,-0.02304286}},{{0.02961196,0.05622242,0.01486995,0.0412258,-0.04435459},{0.02689582,-0.04349018,0.01693345,0.11751731,0.08604625},{0.07313319,0.0021079,0.01390918,-0.06754195,-0.00495883},{0.07535795,0.11446184,-0.06685714,-0.11461881,-0.0852554},{0.07387757,0.05175478,-0.05593615,-0.18230341,-0.13714077}},{{-0.03396679,-0.08692594,-0.05087567,0.01807322,0.03238169},{0.02331317,0.01789878,-0.04950438,-0.10305534,-0.00211139},{0.02813039,0.0136141,0.031564,-0.0146862,0.06542144},{-0.00837031,-0.01698032,0.00309933,0.03799376,0.0700474},{-0.01830537,0.02998081,0.05496589,0.03489606,0.06673727}},{{-0.00072554,0.0853757,0.04348388,-0.03335311,0.01617761},{0.01789269,0.0361081,-0.0328604,-0.03771517,0.00407602},{0.0448784,-0.00622837,0.06029604,0.04504849,0.04328808},{-0.02068537,0.08493429,0.04829329,0.02916435,0.07676709},{0.00408277,0.07762715,-0.00302844,0.0328146,0.0320086}},{{0.12945789,0.06638698,-0.00544286,0.01346685,0.01304478},{0.14344954,0.04952052,0.03821827,-0.01967642,-0.0319499},{0.09700163,-0.06951814,-0.01008271,0.00261545,-0.03644296},{0.04985333,0.06438681,-0.01186634,-0.02624884,0.06348644},{0.0690303,0.02207695,0.01848027,-0.02873972,-0.00908504}},{{-0.07322604,-0.05566576,-0.00915131,-0.03289268,0.05953981},{-0.03488027,-0.11926615,-0.12764567,-0.09855412,-0.07864601},{-0.04328733,-0.04654701,-0.05620988,-0.0435926,0.04040323},{-0.09252677,-0.02880009,0.05232953,0.02904754,0.08754249},{-0.0088376,-0.05663811,0.05444397,-0.00758333,0.07025678}},{{-0.08524881,0.06228245,0.05523109,-0.02989139,-0.03663507},{-0.07258324,-0.02359427,-0.07454782,-0.00487453,-0.01114372},{-0.01613447,-0.01033575,0.02642671,0.09278817,0.03392063},{-0.03572688,0.05232245,0.00574141,0.02727654,-0.00916415},{-0.07202616,0.04346742,0.03368955,0.00342713,0.03719906}},{{0.03526342,0.08256109,0.02368199,-0.02519869,-0.0459133},{0.06786818,-0.01933663,-0.07252648,-0.05158942,0.03014492},{0.08565298,0.02880336,0.08259678,-0.04924566,0.01687206},{0.06741382,-0.03071877,0.00575432,-0.02469042,0.04973621},{0.07501944,0.0104384,0.01072004,-0.03436459,-0.00089282}},{{0.00794402,0.00361338,0.03849676,0.01016318,-0.01634775},{0.04603403,-0.02306108,-0.00019673,0.02142034,0.01215907},{0.00475736,-0.05843136,0.02867118,0.05807339,0.09903211},{0.04924187,0.01718541,0.02477166,0.01321452,-0.08944072},{0.07154068,0.01487023,-0.07679136,-0.04545264,-0.08449601}},{{-0.04284309,0.01115145,-0.00460874,-0.0436014,-0.02313278},{0.02596973,0.05253853,-0.01686215,0.06106383,0.01107513},{0.00177247,0.00463102,0.02909116,0.05776111,0.02687432},{-0.0389891,0.01100898,0.055166,0.07388599,0.07773899},{-0.00727404,0.08426704,0.0411468,0.04922653,0.03611987}},{{0.03814273,-0.02214678,-0.00866016,0.02856475,0.01227975},{0.02000775,0.02761177,0.05235304,0.03128955,-0.0098281},{0.09007701,0.06441232,0.05547962,0.05361901,0.0248867},{-0.06078456,-0.0118828,-0.02243127,0.02385551,0.0758305},{-0.04108432,0.04300067,0.06889785,0.00911505,0.0315212}},{{-0.0775708,-0.09524748,-0.09666261,-0.02071482,-0.00935698},{-0.04789838,0.06299198,0.13992105,0.10221096,0.09777375},{-0.05701991,0.08771444,0.05727854,0.03448758,-0.00618368},{-0.17410177,-0.071978,-0.00093037,-0.02205323,0.04364772},{-0.12415823,0.00034858,-0.00865924,0.00370877,0.05537662}},{{-0.00931213,0.00902655,-0.06566679,0.02908382,-0.07527428},{-0.04143326,0.00510904,-0.00065931,-0.02725858,-0.06583621},{0.03806157,0.04041921,0.01432624,-0.02613132,0.06302638},{0.0413681,-0.02840584,0.02503256,0.06803363,0.07463873},{0.01659856,0.00430478,0.0335031,0.06376329,0.00965034}}},{{{-0.03008433,0.02721602,0.00255653,0.08119328,0.04926361},{-0.0370453,-0.00860791,-0.00353675,0.08076777,0.02695033},{0.00880849,0.06962678,0.072366,0.01574208,0.07716022},{0.01978321,0.02867259,-0.02884094,0.03738376,0.03635611},{0.05301984,-0.06930017,-0.08923341,-0.03814192,-0.05534116}},{{-0.09454418,-0.06693472,-0.02304691,0.05673402,-0.00306076},{0.01996227,-0.01118741,-0.03613279,0.06790461,0.05402745},{0.01705016,-0.06837025,-0.04302973,-0.02438302,-0.05427841},{-0.02919509,-0.08613179,-0.00810667,0.0227678,-0.01996923},{-0.06818686,-0.09292681,0.01666729,0.051944,-0.01263163}},{{0.00130284,-0.00381014,-0.01050934,-0.11067063,-0.02651702},{0.07254104,0.08569566,0.01947466,0.03039394,0.00035064},{-0.01297309,-0.02780859,-0.07709417,0.07680773,0.05350185},{-0.02230494,-0.01211832,0.07976782,0.10303207,0.06214221},{0.04762899,0.11134591,0.1099937,0.04446609,-0.13918725}},{{-0.06482566,-0.03227285,-0.02550539,-0.00364016,-0.04880806},{0.02242766,-0.0356,-0.04345736,0.03944629,0.0793868},{-0.00151382,-0.10027772,0.00512007,0.0060197,0.09238824},{-0.08950488,-0.05083985,0.02228432,0.01767594,-0.08176783},{0.09999517,0.07868883,0.07928144,0.01311874,-0.02511713}},{{-0.02977314,-0.03816629,-0.03478976,0.01091188,-0.04834118},{-0.00772459,-0.04566433,0.01743528,0.10405803,0.09715632},{-0.03384338,-0.10475276,-0.0801249,-0.05939368,0.06647697},{0.01834707,-0.03005501,0.04999766,-0.09440802,-0.05697092},{0.01776309,0.05870211,0.11883834,0.09676526,-0.06424873}},{{-0.03944513,-0.02280858,0.07143845,0.12870397,0.03929896},{0.00573608,0.01803492,-0.01169305,-0.05441641,-0.05954051},{-0.00147149,0.09195543,0.06911368,-0.04290139,-0.03757851},{0.0224073,0.06716859,0.04267342,0.0325664,0.00176245},{-0.0036819,-0.06462692,-0.0837073,-0.03521689,-0.00688696}},{{-0.05990913,-0.02436801,-0.03650145,0.04979813,0.0807275},{-0.00210374,-0.0392414,-0.03307949,0.02356014,0.02758052},{-0.0183845,-0.07395627,0.0567636,0.06383466,0.00243306},{-0.05651382,0.02745205,0.03616042,0.03724483,-0.07820997},{0.03262382,0.01361358,0.01585448,-0.07680245,0.01190016}},{{-0.09364716,-0.08201461,-0.07910662,-0.04756109,0.06107164},{0.01243479,-0.01631788,-0.07954672,0.04161138,0.06346757},{-0.00327926,-0.10319807,-0.1080772,0.0279081,0.03720589},{-0.05166443,-0.09519517,0.0617732,0.09802716,-0.01520899},{-0.06934644,0.01766817,0.03355962,-0.00889513,-0.00651485}},{{-0.0313244,-0.0090452,0.04398181,0.07565307,-0.03833748},{-4.143e-05,-0.00081546,-0.04716614,-0.06261683,-0.08224413},{-0.02434859,0.08088069,0.07085051,0.01828097,0.03269536},{0.11124887,0.12073244,0.16593173,0.03596848,0.01507506},{-0.05416932,-0.05725585,0.01830401,-0.08034828,-0.09434827}},{{-0.03579672,0.02140349,0.04725665,0.02900882,-0.06030994},{0.06957494,-0.001645,-0.0386614,0.03405395,0.01070161},{0.00555643,0.00813112,-0.04054728,0.07848258,-0.00094818},{0.03052414,0.01017381,0.01158352,-0.01856946,0.04532354},{0.04966423,-0.03945316,-0.07747165,-0.01739248,-0.04259668}},{{-0.10223866,-0.00889017,-0.09343137,-0.00980616,0.01716079},{-0.07894468,-0.08217788,-0.02525057,0.09711128,0.11932087},{-0.04149893,-0.01407262,-0.00063992,0.06566283,-0.03734215},{-0.0585066,-0.04067083,0.01907696,-0.0168311,-0.03002726},{-0.06294937,0.0042597,0.07775008,-0.03523114,-0.0413483}},{{0.01124834,0.0831714,0.10816956,0.00678572,-0.12864348},{0.0513868,0.02128047,-0.02101703,-0.19869199,-0.14477751},{0.01815858,-0.00707212,-0.00059798,0.06328183,0.08627906},{0.02526047,0.02554837,-0.00362806,-0.02148064,-0.0638663},{0.0196752,0.00157273,0.0363833,-0.02606688,-0.16598085}},{{0.04063339,-0.05216055,-0.03079145,-0.01869633,0.0752679},{0.03051492,0.0455542,0.0429434,0.05565919,0.07066967},{0.08569735,-0.0206216,-0.0521616,0.01638731,0.00966589},{0.0627676,-0.04852745,0.0075376,0.00839482,-0.01117651},{-0.0355439,0.00079937,0.00392109,0.02102366,-0.01685682}},{{0.00156819,0.01265825,0.04023293,0.07627489,-0.00054931},{-0.05489731,-0.00733476,0.04509725,-0.05498837,-0.03597306},{-0.06207179,0.10666084,0.07373881,-0.01294662,-0.04121006},{0.03003975,0.01600691,-0.00164269,0.0319169,0.04922085},{0.05594914,-0.05745479,-0.09590051,0.03001248,0.02649564}},{{-0.01206218,-0.06316285,-0.0410899,-0.02196695,0.03302182},{-0.02947531,-0.06299166,-0.05232611,-0.01737821,-0.04461829},{0.06951299,0.00122895,0.01925257,-0.06336838,-0.00995102},{0.05320919,0.04586903,0.00090157,-0.12236235,-0.03852969},{0.1254292,-0.0701328,-0.09523251,0.04681798,0.08745123}},{{0.01550187,-0.00517327,0.05881467,0.04448592,0.0383928},{0.06925967,0.03160362,-0.03244324,-0.03695263,-0.10741039},{0.07065777,0.0450014,-0.00625161,0.01812224,0.01763047},{0.02490552,0.02262331,0.07560646,0.04215434,0.00794278},{-0.06113275,-0.03398689,-0.00962118,-0.02896382,-0.11057481}}},{{{-0.01389922,-0.03297029,-0.01500361,0.02847294,0.01924783},{0.01450431,-0.04266284,0.02670143,-0.0508279,-0.0409177},{0.01054015,0.00760253,0.01423785,0.01954657,0.01127733},{0.00738038,-0.00956009,0.00847986,0.03528392,-0.02030685},{0.03180972,-0.05022513,-0.02336839,-0.0521651,-0.03149164}},{{0.03496649,-0.0512886,-0.01903417,0.03292647,0.00825254},{-0.00981531,0.01939087,-0.02710056,-0.03205111,-0.0438997},{0.01190506,-0.02136717,-0.0551624,-0.05810681,-0.02848106},{-0.01430002,-0.04578326,-0.02858225,0.00191059,-0.00926469},{-0.01903645,-0.03032156,0.01852289,-0.01482684,-0.00223689}},{{-0.00723074,0.01839725,-0.04445711,-0.03033,-0.05038462},{0.02808921,-0.01441835,-0.00647444,0.00560208,-0.04418209},{-0.05797377,-0.01562533,0.00753695,-0.0093069,-0.05118767},{0.00267582,-0.02696666,-0.00679423,-0.03411166,-0.0161275},{-0.05662542,0.026579,-0.01003635,-0.05033572,0.02315726}},{{0.03282772,-0.02573826,-0.01193882,0.00252735,-0.00993348},{7.08e-05,-0.05633782,-0.06149878,-0.02971273,-0.04009889},{0.03341742,0.02267795,0.00881544,0.02011333,0.0283075},{-0.05718378,0.03766431,-0.05027225,-0.04713301,0.03792898},{0.01433981,-0.01841118,-0.00739621,-0.05778365,-0.032602}},{{-0.02413367,0.02166969,-0.02560499,-0.0084662,-0.03383968},{0.00544439,-0.0453447,0.02049483,-0.05045992,-0.03877353},{-0.03128487,0.00465178,0.03607974,-0.02818663,0.02528076},{0.05689637,-0.03707279,0.02630226,-0.05881378,-0.0062207},{-0.04921056,-0.04683537,0.04164535,0.00814897,-0.03830686}},{{0.00817971,0.01255862,-0.05337223,-0.02028854,0.01343429},{-0.03983083,0.03677587,-0.05350094,-0.05576842,-0.05305415},{-0.05164258,-0.01424428,-0.00151129,0.02103971,-0.03838896},{0.01730483,0.00819362,-0.00929319,0.03178535,-0.04785542},{0.03027994,-0.01343199,0.00362509,-0.00331702,0.02257957}},{{-0.00173485,-0.02728817,0.01457284,0.01234882,-0.01982391},{-0.03010218,-0.03643471,0.00063338,-0.00532647,0.01310159},{0.03060372,0.03775575,0.02554456,0.05131302,0.02172852},{0.03208104,0.00422176,0.02712724,-0.01165452,-0.0504361},{-0.06008256,-0.03323345,0.03485312,-0.01931415,-0.04193685}},{{0.02523088,-0.03694097,-0.03374418,-0.00998851,-0.01364658},{0.01958771,-0.05115445,0.01973157,-0.01798713,-0.03514379},{0.01287141,0.01519672,-0.01433873,0.02987073,-0.03955837},{-0.03080007,-0.00437632,0.01538399,0.02366026,-0.00471634},{-0.04156914,-0.04695936,-0.02096811,-0.01970064,0.02518529}},{{-0.01474581,0.03477824,-0.02776593,-0.04737989,-0.0505337},{-0.00252037,0.01758197,-0.05882581,-0.06006128,-0.03023217},{-0.04649783,0.02335601,0.00519743,0.00665265,-0.03763236},{-0.01522798,-0.03563534,-0.03339648,0.02818827,0.02606496},{0.01393489,-0.00298251,-0.01479213,0.00787591,-0.01280916}},{{-0.02768506,-0.05468985,-0.00113173,-0.00206744,-0.02306745},{-0.02080072,0.00876519,-0.05548645,-0.01564243,-0.00772469},{0.01537119,-0.04629636,-0.01910681,-0.00810387,-0.02459494},{-0.02456432,0.01183849,-0.05181957,-0.00834099,-0.00499771},{-0.06109561,6.11e-05,0.01980446,0.01161138,-0.03330342}},{{0.03612307,-0.00232366,-0.02501275,0.01873695,-0.01221801},{0.03511806,-0.01172531,0.02078682,-0.03313167,-0.03704974},{-0.03748413,-0.03451162,0.01890112,-0.00508313,0.0230367},{-0.01798954,-0.03466679,0.0314414,0.02447655,-0.0216512},{0.0253506,-0.03758448,0.02231827,0.0142133,-0.02053652}},{{0.01369574,0.00968698,-0.05994166,-0.00202486,-0.02643007},{-0.02338316,-0.04353365,-0.06078408,-0.06047299,-0.03619383},{-0.03134152,-0.03174791,-0.03885708,-0.01255135,-0.01663752},{-0.04491161,-0.00502025,-0.03776516,0.00731887,-0.00059594},{-0.03429437,-0.04455594,-0.02595812,-0.0050315,-0.04858926}},{{-0.05102576,-0.06052916,0.03471604,0.02855564,-0.02051565},{-0.03579206,0.01936668,0.00083909,-0.06074252,-0.01389746},{-0.03554177,-0.03606934,-0.02989798,-0.03628262,0.01822879},{-0.02756612,-0.06033867,-0.06014595,0.0026507,-0.04080756},{-0.01661023,-0.02710167,-0.02919354,0.02166918,0.00773869}},{{-0.02578398,0.01147937,-0.02617406,-0.003936,-0.03801397},{-0.01511165,-0.01219763,-0.01892424,-0.03081943,0.02822859},{0.02046411,0.00212832,-0.04923264,0.0071205,-0.03879186},{-0.04164575,-0.05861175,-0.02816754,-0.03231635,0.00188389},{-0.01470712,0.01373203,0.0097906,-0.04238316,-0.04309228}},{{-0.02900387,-0.00120361,0.03260281,-0.06163364,-0.00686516},{0.01998299,-0.05422993,0.01345885,-0.03279072,-0.01553824},{0.02778781,0.03687705,0.03934257,0.0115134,-0.00058434},{0.004808,0.03265223,0.03272608,-0.01048174,-0.05670994},{-0.0260825,0.03331893,0.0290693,-0.02819261,-0.01989547}},{{0.01331682,0.02094424,0.00205646,-0.00885557,-0.03304663},{-0.00992745,-0.05561991,-0.05093472,0.05018777,-0.02987833},{0.03165776,-0.01367341,0.03294226,-0.00059654,0.02723986},{0.00366578,-0.05936568,0.03199584,-0.05687412,0.02836337},{-0.02951025,0.00030821,0.05864596,-0.05192744,-0.01266872}}},{{{0.05653721,0.06133087,-0.0573633,-0.02420816,0.00609422},{-0.02531921,-0.02534942,0.03114067,-0.01893577,-0.02324487},{-0.00288563,-0.02746157,-0.04105463,-0.03529641,0.05354096},{0.00155861,-0.04885767,-0.04443146,-0.01900444,0.06373528},{-0.05739253,-0.04449401,-0.06343795,0.02128938,-0.07084709}},{{0.06965148,0.02472351,-0.02670078,-0.07203194,-0.13193919},{0.02543221,-0.01839908,-0.01906417,-0.04691092,-0.07560487},{0.02979875,-0.00772216,0.02539128,-0.00293838,0.09025799},{-0.05486399,0.01547908,-0.02629091,0.02525795,0.05315836},{-0.08953584,-0.01475166,0.05196777,0.03834245,-0.04118947}},{{-0.05221383,0.06401721,0.0237118,0.08494452,0.14731544},{-0.016313,0.03289042,0.09790555,0.06646423,0.05407107},{0.01426311,0.03595322,0.10132398,0.01287528,-0.06244194},{0.10462904,0.00291557,-0.00765944,0.02636228,0.01835993},{0.1211023,0.08868289,-0.00070217,0.10841472,0.07360965}},{{0.06362358,-0.02302972,0.03579678,0.07332321,0.02911882},{0.01047415,0.08650799,0.07240091,-0.04300166,-0.08239216},{0.03142774,-0.01856925,0.0100896,-0.0440208,-0.01193983},{-0.10022321,-0.03862707,0.00621749,0.02290178,0.08876351},{0.0077673,0.02870624,0.09263158,0.15843217,-0.06482518}},{{0.03873974,0.03289403,0.11579201,-0.00790864,0.02593023},{0.05844108,0.0964506,-0.00218675,-0.09484076,-0.23787919},{0.00229491,-0.07930712,0.05662623,0.05948469,-0.03502496},{-0.015532,-0.01091289,0.0290638,0.12278851,0.02784353},{0.02091865,0.04775387,0.16276172,0.12380653,-0.05651958}},{{0.0615945,0.0652841,0.01028049,-0.03166102,-0.01838683},{0.00406511,-0.00344481,-0.025334,0.07543653,0.03154524},{0.00789669,0.02219182,0.06731084,0.06192787,0.07112906},{0.00331775,0.03238042,0.04162301,0.05734034,0.04542279},{-0.03881977,-0.01284265,-0.02133885,-0.0710142,-0.01656155}},{{-0.02227238,0.04584007,0.01485686,-0.06395188,-0.08676504},{0.00647632,-0.03083036,0.04360611,0.00972452,0.03170204},{-0.03864766,0.07083202,-0.02317717,-0.02690787,-0.01629312},{-0.08064997,-0.08384059,0.03634133,-0.02430139,-0.03495757},{-0.01105863,0.03631192,0.05029978,0.04294575,-0.03722285}},{{-0.02581907,0.02651223,0.10402632,0.04561525,0.03111817},{-0.02045511,0.10551079,0.0557723,-0.02126078,-0.06032452},{0.07322406,0.12707125,0.04639798,-0.02958479,-0.01553604},{-0.09265436,0.00095953,0.02109675,-0.02578866,0.05677319},{-0.11983585,0.0510937,0.0103044,0.06869243,0.04367133}},{{0.04157306,0.04381348,0.02900837,0.01108058,-0.00011051},{-0.00377693,0.06159948,0.00595674,0.14490464,0.07035231},{0.01241039,0.00960734,-0.00710602,0.06408063,-0.03438606},{0.030682,-0.02858285,0.01817976,0.05247146,0.00516295},{-0.01260373,-0.06492213,0.01738898,-0.04873662,-0.00213015}},{{0.0301391,-0.05625718,-0.03707798,-0.01973709,0.0601885},{0.04163008,0.00966507,0.01804987,0.00450346,0.0057336},{0.08483534,-0.03262796,-0.0197798,0.01096937,-0.01462513},{0.00465302,-0.00730848,-0.01878637,0.08582693,-0.00993598},{0.01578053,-0.00482906,-0.04627153,0.01240692,0.02054448}},{{0.09260436,0.08811034,0.00901114,-0.05219904,-0.01592645},{0.07161549,0.07464121,-0.02973557,-0.07292377,-0.10048828},{0.01274405,0.08610826,-0.00109099,0.01110718,-0.00818221},{0.02538741,-0.02259278,0.04069456,0.09019165,0.0230264},{-0.05923133,0.00539083,0.06185311,-0.00632541,-0.04920024}},{{-0.02941861,-0.03248039,-0.04868273,0.10501096,0.16881007},{-0.07526743,-0.0560775,0.02515369,0.10918856,0.16363335},{0.00669102,-0.00580688,-0.04904236,-0.00467374,-0.16112538},{-0.00190621,-0.02903523,0.02710975,0.05670875,-0.00915744},{0.02214613,0.02370678,-0.01036899,0.02152547,-0.00467347}},{{0.04573393,0.03579015,-0.04531178,0.00278218,0.02804261},{0.03924968,0.01227302,0.02643485,-0.04014253,-0.03480444},{0.02925406,-0.02895992,-0.04491608,-0.0068753,0.04248414},{0.04009652,-0.03346175,-0.05288443,-0.0133683,0.0114963},{-0.04155719,-0.01559322,-0.02848284,0.03307806,0.04986468}},{{0.04158726,-0.00359984,-0.0294259,-0.07236403,-0.00022731},{-0.0110555,-0.0027398,-0.0730924,0.05036426,0.02731589},{-0.03576854,-0.00254549,0.04242432,-0.00756204,0.0732022},{0.05415981,-0.00453426,0.01099497,0.02173873,0.03874462},{0.01742446,-0.09944595,-0.05655461,-0.07383346,-0.03337191}},{{0.01336642,0.10471946,0.04187444,-0.0313173,-0.02201321},{0.00276457,-0.03820187,-0.02531251,0.03663525,-0.02857943},{-0.05658026,0.00816821,-0.02056748,0.09409855,0.02718562},{0.01917564,0.00889356,0.00474437,-0.01660395,-0.05024333},{0.11507175,-0.02620503,-0.0894714,-0.00703411,-0.01285421}},{{0.05948633,-0.04279089,-0.01563187,-0.02627362,-0.00217966},{0.01173712,-0.01032858,0.02871043,0.00907116,0.06128978},{0.08536829,-0.03625562,0.00272893,0.06513465,-0.04251546},{0.01331879,-0.04727721,-0.02614191,-0.00495366,0.04774867},{-0.04650627,-0.00190637,-0.03125885,-0.03292814,-0.05775768}}},{{{-0.03150696,-0.01704876,0.05719683,-0.07349025,-0.04732409},{-0.07302488,0.02908469,0.02523227,0.00509506,-0.06463811},{0.02197221,0.04186835,0.01709623,-0.01832382,-0.04929636},{0.01366294,-0.02143019,-0.05284567,-0.02535157,-0.02314389},{-0.01782852,-0.10325561,0.01940975,0.00142226,-0.01489277}},{{0.05155835,0.00770115,0.0938077,-0.02326616,-0.11250608},{0.00890325,-0.01257343,0.0790044,0.00612471,-0.00037618},{-0.00130116,-0.03039061,0.0655456,0.02092739,0.0461077},{-0.02547412,-0.04628816,0.05286747,0.01977983,-0.0208779},{-0.01475596,-0.02795597,0.01840644,0.05000091,0.06424152}},{{-0.02681589,-0.00890275,0.06088308,0.08079965,0.06926411},{-0.10313401,-0.00613833,0.01504695,0.03359846,-0.08058277},{0.00726501,0.07797197,0.07312872,0.02258318,-0.0557739},{-0.02074677,0.06631847,0.06089515,0.04279641,-0.03381893},{0.04679336,0.0415111,0.04904831,-0.04153201,-0.12418434}},{{0.02228658,0.05538945,0.02391005,0.05819031,0.00274566},{0.0112981,-0.04684045,0.03145556,0.04317068,0.00031276},{-0.03736765,-0.03282644,0.0134699,0.07808902,0.09708501},{-0.03499756,-0.07160946,0.10376982,0.02001004,0.03295545},{0.04832673,0.02587268,0.06573973,-0.05866728,-0.10712826}},{{0.0622328,0.06000702,0.05646848,0.08115328,-0.04757284},{-0.03634984,0.02186518,0.0783219,0.0807387,-0.06189605},{0.05342482,0.00505018,0.11626694,0.00817032,0.0343243},{-0.00833657,0.05515896,0.18450579,-0.0961566,-0.05770519},{0.03974169,0.00580064,0.14495136,-0.06572165,-0.18714905}},{{-0.06758577,-0.01865688,-0.04778453,-0.05736738,-0.09276461},{-0.03064101,-0.03215484,-0.01309482,0.00033877,-0.02872027},{0.03546236,0.04220969,0.00701608,-0.07006554,-0.08829959},{-0.04991975,-0.08428551,-0.03421162,-0.0129281,-0.02359971},{0.04663527,0.0464535,0.05941411,0.07864854,0.15671805}},{{-0.05233727,0.03187643,0.05722154,0.04254479,-0.06838942},{-0.01177234,0.017501,-0.02358407,-0.04245885,-0.02000531},{0.04670127,0.05089404,-0.04012712,0.02128403,-0.04591963},{-0.01175658,-0.00620857,0.05801009,-0.05536904,0.00293853},{0.01405859,0.04062477,-0.06394342,-0.02198107,0.0901183}},{{0.03902612,0.04281498,0.11744193,0.03781264,-0.05603195},{-0.00183773,-0.06441942,-0.00601319,0.03846096,-0.01289671},{0.03832941,-0.05183925,0.00120133,0.03855103,-0.0194295},{-0.01019113,0.06592742,0.01387835,0.02057344,-0.09208528},{0.05802572,0.07846412,0.03384553,-0.02391041,-0.0147339}},{{-0.03022913,-0.05158076,-0.09063976,-0.01685511,-0.02809706},{0.01819083,-0.00411146,0.00707314,0.03445554,-0.09049277},{-0.01950653,0.00176838,0.03801728,0.02018495,0.00344048},{-0.02646166,0.02104002,-0.01344926,0.03442291,-0.00243841},{-0.04440989,-0.04094216,0.06111525,0.06956072,-0.01237996}},{{-0.08996052,-0.04383533,0.0469587,0.05032974,0.02791355},{-0.03491393,-0.06829965,0.0011138,0.00808189,-0.0585914},{0.01571659,0.02376886,0.0225493,0.06960177,-0.02826515},{-0.05734717,0.00595921,0.05966147,-0.01200368,-0.08210922},{0.01363344,-0.03009056,-0.00899636,0.02304882,-0.08744609}},{{0.02147624,0.06830256,0.07868311,0.01827035,-0.03760637},{0.00089076,-0.03717354,-0.00050147,0.05451559,-0.04038515},{-0.03060859,-0.02230928,0.02822151,0.03731009,0.03138545},{0.05373368,-0.01945427,0.07071726,-0.02912114,-0.06169094},{-0.03882659,-0.01357275,-0.02334681,0.04609799,-0.0211916}},{{-0.1166628,0.03736925,-0.07982355,0.07456277,0.10523982},{-0.05768171,0.02727838,-0.10150287,0.00950878,0.08378865},{-0.07097753,0.04673548,-0.06173903,0.06769777,0.04335428},{0.02158107,0.01409243,-0.05358805,-0.04249553,0.05335018},{0.02531403,0.03202374,0.0337136,-0.02892249,-0.04070397}},{{-0.02360013,-0.0105183,-0.01178523,0.00192623,-0.04111621},{-0.02801055,-0.06076631,-0.03756372,-0.02462579,0.01229011},{0.0422686,0.00213145,0.00664438,-0.00408238,-0.00360539},{0.01659741,0.00724001,-0.00406829,0.05747444,0.02267729},{-0.03468397,-0.0247764,0.02710955,0.02118579,0.05453279}},{{-0.04651166,0.01143804,0.0524784,0.00377697,-0.04488241},{-0.03397657,-0.0281503,-0.04864608,-0.03755301,0.00504415},{0.03649676,-0.05886329,-0.05681171,-0.04950668,-0.0434505},{0.04019783,0.01337007,-0.07132652,0.08516734,0.06293132},{-0.00595932,-0.0949529,-0.01165102,0.06099989,0.11485673}},{{-0.11158162,-0.0228873,0.03551521,-0.00410457,-0.00314968},{0.00638376,0.0236569,-0.00545872,0.05623522,-0.01489216},{-0.03617401,0.00699218,-0.08238618,0.0091401,-0.05403741},{-0.03778517,0.04652265,0.00035669,-0.01968283,0.11714027},{-0.09815696,-0.04509267,0.01650645,0.05202289,0.11513729}},{{-0.04886489,0.01215907,0.02765178,-0.06218357,-0.02333701},{-0.05955905,0.00243253,-0.0301482,-0.09262776,-0.01290939},{-0.03701914,-0.05413151,0.00729022,0.02353049,-0.04104503},{-0.01444016,-0.03457785,0.04857937,0.02179539,0.01003781},{-0.07560045,0.02074176,0.0856427,0.0494584,0.01869797}}},{{{-0.10349901,-0.08186588,-0.11794197,-0.0644962,-0.01893658},{-0.03366402,-0.02906923,-0.03650874,0.00280972,0.01563045},{0.01122684,-0.0041237,0.0476556,0.05013772,0.01039152},{0.00580405,0.06385992,0.0537995,0.03996203,0.01270861},{0.02432501,0.02492557,-0.00198952,0.06586006,0.02241445}},{{0.09254915,0.05432573,0.04896575,0.03465999,0.00734008},{0.04931378,-0.00318927,0.01089054,0.00848612,-0.01093772},{-0.02993434,-0.03845076,0.01758102,-0.0428984,-0.05279479},{0.00900845,0.00059012,0.07139885,-0.01746673,0.03716481},{0.0804521,0.00636116,-0.01099486,-0.02873933,-0.01570949}},{{-0.05055942,-0.02294732,0.01151868,0.0880968,0.06379128},{-0.09354698,-0.10265786,-0.04393121,-0.0188909,0.06278273},{-0.04621534,-0.04373956,0.01418582,0.00987279,-0.01255418},{0.0004881,0.08525657,0.05375579,0.00237829,-0.02461399},{0.05494807,-0.0266182,0.04034067,-0.0359078,-0.02177495}},{{-0.04690189,0.06547492,0.20054632,0.14086913,0.16666114},{-0.01955526,0.01444236,0.05012664,0.00184053,0.06674761},{-0.00190056,0.03323492,-0.00418482,0.0170393,-0.0183354},{0.0242355,0.03789936,-0.02276744,-0.04723047,-0.00964753},{0.01834292,-0.04633266,-0.05208018,-0.1174299,0.0622736}},{{0.04037464,0.1037057,0.13020453,0.16887578,0.11521304},{-0.04669133,0.0644313,0.05143345,0.03117756,-0.05089066},{0.02258613,0.00425596,0.02843338,-0.07528778,-0.08288755},{-0.03937045,0.01705513,-0.01003581,-0.15188524,0.01118774},{-0.03386723,-0.03489218,-0.08627198,-0.07143049,-0.0437923}},{{-0.002773,-0.03519541,-0.12711775,-0.08124467,-0.09953523},{-0.04502947,-0.02661474,-0.0637088,-0.01477574,-0.03036965},{-0.02076987,-0.00530445,0.07949771,-0.0144721,0.01158771},{0.01291838,0.03920307,0.04610744,0.08934386,0.00740973},{0.01905415,0.07482514,0.05857947,0.07101279,0.0336765}},{{0.03663226,0.04521983,-0.02672585,-0.06127548,-0.03362172},{-0.00446272,-0.02990573,0.02598695,0.00794247,-0.05980995},{0.08177794,0.05173232,-0.00919063,0.00820351,-0.05016181},{0.05854777,0.06058231,-0.02438942,0.03284876,0.05087278},{0.02442663,0.05982655,0.01401246,0.00755106,0.00862699}},{{0.12340564,0.16767386,0.09270193,0.13514012,0.11415022},{-0.0022021,-0.0414937,-0.03683585,-0.0652035,-0.05621709},{-0.03966153,0.02792275,0.05490978,-0.00617874,-0.09652724},{0.07734559,0.07309713,0.05735415,0.02506711,0.00583288},{0.05221448,0.06733998,-0.02563545,-0.04532029,0.04390896}},{{-0.08784895,-0.11865094,-0.14999917,-0.12187003,0.0213722},{-0.13381138,-0.1403064,-0.15179476,-0.11647461,-0.02413686},{-0.021556,-0.05149537,0.00904545,0.01646587,0.02736913},{0.02290339,-0.0136054,-0.00391945,0.07160421,0.07204098},{0.01797391,0.04840069,0.04145602,0.0866771,0.10201823}},{{-0.13515447,-0.04350006,-0.00499176,0.02810786,0.07676224},{-0.09433926,-0.05745279,0.04307643,0.01454041,-0.02441944},{0.00347791,0.02385362,0.02120683,0.03991315,-0.00389461},{-0.01569784,0.01443908,0.06291258,-0.00589902,0.02545063},{0.05868924,0.00510036,-0.0033042,-0.03118031,0.036845}},{{0.04987213,0.03886356,0.10743101,0.06468869,0.07411546},{0.03739435,0.06580228,-0.01356842,-0.0369197,-0.03107941},{-0.00810168,0.00128395,-0.04729817,-0.06847518,-0.03084163},{0.06942911,-0.04400513,-0.00728019,-0.01183725,-0.04914137},{0.08173347,0.03541758,0.04524089,0.03757782,0.02394937}},{{-0.13487963,-0.12495496,-0.00701202,0.07573453,0.11159921},{-0.06560369,0.00082426,-0.01240315,0.11873989,0.10643884},{0.00850861,0.0562058,-0.02667991,-0.0067332,-0.05271361},{0.02193866,-0.00919866,0.00561891,-0.08072359,-0.0615931},{0.03796431,0.00839902,-0.02320173,-0.01395716,-0.05722755}},{{-0.03269006,-0.02581444,-0.07113322,-0.0708237,-0.0476105},{0.01562116,0.03332649,0.02360136,-0.02922346,0.04217253},{0.04286113,0.05899757,-0.01034155,0.01402093,0.00676469},{-0.01463921,-0.01520504,0.0553823,-0.01571587,0.05711328},{0.00858057,0.02017124,-0.00785178,-0.04592392,-0.01612924}},{{-0.06812048,-0.08740022,-0.03648923,-0.06091745,-0.01424869},{0.0513786,0.03730084,-0.00801186,-0.00106995,-0.01176087},{0.1101904,0.02193794,0.04090121,0.08336205,0.02663431},{0.02714983,-0.00863771,0.0132617,0.1027725,0.07866709},{0.00159285,-0.00457314,-0.00328582,0.05090063,-0.00130045}},{{-0.05672587,0.00374825,-0.01017662,-0.01565219,-0.10240322},{0.07480594,0.10344511,0.04927658,-0.02871512,-0.02444039},{0.14886549,0.04086676,0.1321732,0.06873628,-0.0468693},{-0.03781157,-0.05737407,-0.02662678,0.01710917,0.03505884},{-0.14924507,-0.09500256,-0.02357882,-0.00679559,-0.03170168}},{{0.02848068,0.01597748,-0.05571099,-0.0024347,-0.03800414},{0.02740672,0.00731068,-0.01808112,-0.03611191,-0.06771767},{-0.05114984,0.01904257,-0.02358122,-0.02367015,0.04336648},{0.05447277,0.04940481,0.05311503,0.07670791,0.00528999},{0.02917906,0.01668245,0.01425705,0.03351372,0.08700485}}},{{{0.00542137,0.02789435,0.07295703,0.05279196,0.01325581},{0.00612292,-0.03489797,0.10032892,0.05790813,-0.030735},{-0.00063495,-0.00979804,-0.02977787,-0.02544574,-0.08440068},{-0.00790344,-0.06317685,-0.01704643,-0.04455817,-0.0275669},{0.00250194,-0.04372116,-0.00680329,-0.0562614,-0.00250595}},{{-0.06004278,-0.08631703,-0.07999453,-0.06198741,0.0089483},{0.0501449,-0.0056454,0.06416336,-0.00881574,0.03193025},{0.03733306,0.07292693,0.04109136,0.00624248,-0.03529005},{0.04354007,-0.03611111,0.00700832,0.07456965,-0.02462052},{-0.00055981,0.00826831,-0.0084737,0.0354589,0.01889215}},{{-0.10449654,-0.0352411,-0.00896664,0.01113898,-0.01938555},{-0.09554379,-0.00847816,0.01041856,-0.03098044,-0.08781316},{-0.01778995,-0.09414827,0.01027132,0.09392673,0.07342009},{-0.05771331,-0.01915785,0.0954513,0.04926833,-0.09090876},{-0.04090172,0.0141528,0.0218856,-0.04761904,-0.05636588}},{{0.06111664,0.03449442,-0.08503439,-0.122056,-0.18690044},{-0.00587469,0.02081114,0.02642392,-0.02646333,0.05762326},{-0.00699626,0.0377524,0.05243856,-0.04294755,0.13366631},{-0.00405693,0.00153088,0.0150894,-0.02118743,-0.04709908},{0.11795461,0.08255529,0.08507234,0.08502631,0.17503668}},{{0.05197008,-0.00317399,-0.08573872,-0.1511175,-0.21118593},{0.06237246,-0.05577081,-0.08311725,-0.0269342,0.11632732},{0.03454701,-0.01748718,0.07148747,-0.03898198,0.02547041},{0.01672681,0.00038099,0.06248504,0.04687126,0.00579169},{0.04016119,0.06194608,0.07309734,0.05662679,0.12787594}},{{-0.0217634,0.00348414,0.00633039,0.08920038,0.12625939},{-0.05537543,-0.00975014,0.08181982,0.02342205,-0.01904106},{0.05110464,0.02382668,-0.00059278,-0.069849,-0.04436127},{0.03280934,0.05172888,-0.01397356,-0.07100365,-0.05939339},{-0.02600946,-0.04119859,-0.04731707,-0.02580377,-0.06388016}},{{0.03890549,0.06213829,-0.01619422,0.03828648,0.09079619},{0.09925676,0.03867963,-0.03595103,-0.00116177,-0.00044304},{0.00818631,0.06640139,-0.01525222,-0.00157674,0.04438052},{-0.04892074,0.05862214,-0.03208934,-0.03357103,-0.03200288},{0.00427366,0.01690393,0.00303814,-0.04022258,-0.00910706}},{{-0.11153498,-0.11953591,-0.10333607,-0.11113343,-0.06981423},{0.04685369,0.02952336,-0.02945617,0.10423764,0.07673591},{0.00016632,-0.09134474,0.05158086,0.10571946,0.01862547},{-0.1245852,-0.06199259,0.05862749,0.01472325,-0.01310696},{0.02749564,0.03946872,-0.00674366,-0.04232544,-0.01738524}},{{-0.14308797,0.02244143,0.04385037,0.05549384,0.02552973},{-0.10108831,0.03305361,0.00927411,-0.03334178,-0.07724053},{-0.02016913,-0.04937609,0.03997996,0.02221738,0.01347096},{-0.08047924,-0.00627251,-0.03282063,-0.02678378,-0.17312372},{-0.05131499,-0.04702141,0.00653845,-0.00476199,-0.13267124}},{{-0.00343658,0.04944776,0.11318611,-0.00728052,-0.09279859},{-0.02054645,0.00218872,0.04297563,0.05782435,0.08979588},{-0.06358971,-0.06264447,0.00557543,0.05644737,-0.00502138},{0.03296569,0.03274016,-0.01494772,0.01137207,-0.00267881},{0.01584972,-0.04873879,0.00851177,-0.02389497,-0.00716654}},{{0.00341152,-0.04146095,-0.06007105,-0.0685049,-0.11578441},{-0.02018386,-0.00077095,0.01666313,0.05465942,0.09777651},{0.05475187,0.03426807,0.08182016,0.03096559,0.03115993},{0.04843838,0.00731204,0.00183105,0.06309761,-0.0129709},{0.01128864,0.00983691,-0.00071093,-0.01526806,0.0557115}},{{-0.04000214,0.15144187,0.15573353,0.02516948,-0.09559522},{-0.03286593,0.06203663,-0.10675757,-0.13120086,-0.14697906},{-0.05272021,-0.04241522,0.01081101,0.07285298,0.05332814},{-0.02979372,0.06589357,0.08820172,-0.01352787,-0.10123444},{0.02563128,0.02287703,0.02114641,-0.03652078,-0.04494844}},{{-0.04123044,-0.02464785,0.05282737,0.10193132,0.07144946},{-0.02740325,0.01051856,0.09475646,0.01205012,-0.02025159},{0.02325966,-0.04243399,-0.02063904,0.03053649,-0.02127163},{0.04690798,0.01224656,-0.04574681,-0.02117026,-0.00832493},{-0.05233614,0.01250585,0.05324805,-0.02871754,0.00702354}},{{0.06965533,-0.03228154,0.01788935,0.02682311,0.0875249},{-0.01726959,-0.01082308,0.01515022,-0.01989807,0.03100428},{0.05362507,0.01005454,-0.00252581,-0.05472938,-0.02652192},{0.02088108,-0.03968297,-0.05424423,-0.03663341,-0.02560491},{0.00778882,0.06414361,-0.01927703,-0.00445633,0.02286254}},{{-0.06980253,-0.09860396,-0.04872006,-0.00436183,0.04197584},{-0.13942587,-0.00829661,-0.04499495,0.02563697,-0.00087846},{-0.00238131,0.10242082,-0.02864758,-0.08908582,-0.02613551},{0.04849904,0.00362965,-0.08265521,-0.04393587,0.02101527},{-0.02976989,0.07103333,0.0170438,-0.02116757,0.05768914}},{{-0.03314491,0.01325249,0.07352124,0.04047453,0.01931953},{0.01279538,0.01368369,0.09550261,-0.04058554,0.0205579},{0.00656369,0.02739953,0.02495211,-0.01228087,0.01272265},{-0.01135062,-0.04056116,0.03179472,-0.02141819,-0.1166032},{-0.02691266,-0.03155539,-0.03019123,-0.02454029,-0.05482259}}},{{{-0.04526852,-0.00822534,0.03282553,0.00605803,-0.03326101},{-0.01622965,0.01545322,-0.05897273,-0.05397321,-0.02363001},{-0.03183214,0.02358012,-0.02985813,0.00532568,0.02771796},{-0.0099454,0.01881272,-0.04187792,0.00138221,-0.04047726},{-0.04409409,-0.04727803,-0.02405031,-0.02882607,0.00988665}},{{-0.02256485,0.03350476,0.05215187,-0.00028088,-0.03073017},{0.02551611,-0.03357119,0.03624238,0.01456425,-0.00825195},{-0.060207,-0.03596667,-0.00792205,-0.01243579,0.04118503},{-0.01664561,-0.01077,-0.03702081,0.03105683,-0.01366306},{-0.01333,0.02933299,-0.05477011,-0.03874873,-0.04548664}},{{0.03082162,0.01526638,-0.05378118,-0.05364968,0.02931496},{0.00746985,0.03107557,0.01264249,-0.05808353,0.02599819},{0.01501625,-0.04185547,-0.04100541,-0.05971405,0.00970564},{0.00133966,0.00912638,0.00769331,-0.01166921,-0.04195745},{-0.04123814,-0.04247386,-0.02230458,0.01800547,-0.01962871}},{{-0.00031715,0.00172389,-0.05326411,-0.02985826,-0.01970738},{-0.01095319,-0.03491778,-0.05716183,-0.01971501,0.03499712},{0.01864223,-0.02800986,-0.05924894,-0.01920767,-0.05581006},{-0.05007663,0.01318387,0.00631927,-0.03232241,0.01378006},{0.0077812,-0.04738899,-0.06257346,-0.0384195,-0.03267818}},{{-0.00038114,0.00182216,-0.04257504,0.00718181,-0.04427344},{0.0108825,-0.05024374,-0.04142076,0.0153533,0.05801059},{0.01243388,-0.00569923,0.00145941,-0.05468489,0.0289685},{0.06339968,0.01533913,0.01574987,0.00210549,0.01872558},{-0.0156329,-0.00747109,-0.01230651,-0.06294253,-0.00177487}},{{-0.00989203,-0.00744292,0.01903799,-0.02802881,0.00863399},{0.01367641,-0.00064481,0.01117205,0.00510114,0.00313852},{-0.01275984,0.03084354,-0.01031919,-0.00987733,-0.05108562},{-0.06131281,-0.06058422,-0.02657463,0.00855964,-0.05222581},{-0.02329083,-0.03606792,-0.03123948,-0.00362788,0.02007895}},{{-0.00277006,-0.00839883,-0.01435327,-0.01920346,-0.00246762},{-0.0323064,0.01943266,-0.05651224,-0.05957308,-0.01973517},{-0.0412936,-0.04124079,-0.05332673,-0.03065306,0.00328586},{0.02712399,-0.02628371,0.02333017,0.01197004,-0.01102004},{0.04960012,-0.05381392,-0.02236127,0.01045539,-0.0481456}},{{-0.01463441,-0.01251315,0.01230469,-0.01475745,-0.05844049},{0.01159344,-0.04118397,0.0130428,-0.01928733,0.03032131},{0.03145923,-0.00323975,-0.04972288,-0.00773588,-0.01655033},{0.01594374,0.02991154,-0.01326797,-0.04670186,0.02538696},{0.04590665,-0.03107221,-0.00938217,0.03135614,-0.0501705}},{{-0.05898518,-0.00878248,-0.02684205,0.04735119,-0.01720337},{0.00184938,-0.04673542,-0.01884913,-0.05687427,0.03028303},{-0.0142506,-0.05997889,-0.00592935,0.04180973,-0.04732183},{-0.02642542,-0.03505863,-0.0395942,0.02597358,-0.04920433},{0.03425523,0.05291329,-0.05468488,0.01355026,-0.04924285}},{{-0.00134695,-0.06120712,-0.01012585,0.05164374,0.0270371},{-0.03652624,-0.0423267,-0.05234448,-0.02723948,0.02682943},{0.00354949,0.01098416,-0.01239153,0.03484691,-0.01790945},{-0.04696082,-0.02238988,-0.03362928,-0.03461228,0.02481941},{0.02807499,0.05282297,-0.02222272,0.02738004,0.01700955}},{{0.01563153,0.00777529,-0.02747133,-0.029275,0.01136926},{0.00735691,-0.05236626,-0.05758003,-0.0450072,-0.04052008},{0.01937777,-0.03300706,0.01355269,-0.02382581,0.0107638},{-0.01299947,-0.05479959,0.01285969,-0.03640326,0.00871471},{-0.06216348,-0.05050978,-0.0015405,-0.02692534,-0.01629922}},{{-0.00363738,-0.00161595,0.03125555,0.05196979,-0.00647706},{0.0343903,0.036874,0.02180185,-0.00589755,0.01136312},{-0.0547325,0.0286833,0.02733394,-0.0442542,0.01914878},{0.01043122,-0.02857927,-0.02589838,0.01340587,0.03189069},{-0.02155649,0.03038186,0.00863489,-0.04650942,0.00423518}},{{-0.02770327,-0.03970487,0.00523064,0.00651023,-0.04417599},{-0.0138577,-0.05596166,0.02594906,-0.01022674,0.00020996},{0.01267473,-0.0304667,-0.06025791,-0.02014589,-0.04022273},{0.03608357,-0.05052343,-0.03797247,0.03081896,-0.05935822},{0.03827919,-0.01470405,-0.04126094,-0.00553375,0.02038761}},{{0.00567763,-0.04715811,-0.01286068,-0.04419782,-0.03341314},{-0.04019198,-0.05049769,-0.00431391,0.01427004,-0.01327993},{0.00453149,-0.01308099,-0.03868676,-0.03684044,-0.01884231},{0.04172248,-0.02693472,-0.04810923,-0.01715027,-0.04415228},{0.02274566,-0.02058885,-0.06027843,0.00126025,-0.03730081}},{{-0.05681162,0.00435648,-0.00966042,-0.02518058,0.00642815},{0.02228498,-0.05712372,0.00772828,0.03191406,0.00596454},{-0.00167557,-0.0116474,-0.04404342,0.01829511,0.03208375},{-0.02856161,0.02699216,0.04388953,0.03644312,0.00600577},{0.03513355,0.05071474,-0.00095182,-0.04538953,-0.01833107}},{{-0.04713486,-0.02287534,-0.03162539,-0.00193873,-0.04466876},{-0.0427162,0.01385548,-0.05202608,0.01249206,-0.02402656},{-0.05292694,0.01927854,-0.03095658,0.03177085,-0.05363842},{-0.03333029,0.05370051,0.00752109,-0.04343237,-0.05766953},{-0.02471614,-0.00899356,-0.04274976,-0.03401092,0.05894706}}},{{{-0.03834173,-0.01962177,0.02895672,-0.02810981,-0.06051535},{0.00255491,-0.07611401,-0.02234297,0.00158415,-0.06982411},{-0.02321815,0.00530976,0.00506348,-0.03670511,-0.00890908},{0.02157943,-0.05774025,-0.02185686,-0.0398139,-0.00629012},{0.00269536,-0.03430125,0.0163799,0.01853141,0.00264261}},{{-0.08400823,-0.0533016,-0.02210994,-0.0249971,-0.02038677},{-0.02794309,0.02290587,-0.0149299,0.00532029,-0.03723394},{-0.02894128,0.00192418,-0.03249672,-0.02764187,-0.07444392},{-0.04633272,-0.02806267,-0.05958222,-0.01710579,0.01302471},{0.00364884,-0.07619628,0.025134,0.02564843,-0.01125795}},{{-0.0033187,-0.02113234,-0.04440527,0.01714605,0.01620052},{-0.01069385,-0.02609753,-0.01277094,-0.03795381,-0.00460294},{0.04073218,0.01273969,-0.08766348,0.00214948,-0.04336901},{-0.02009326,-0.04519969,-0.00952683,-0.03219096,-0.02740262},{-0.03694655,0.0071559,-0.0579503,-0.0527655,0.02982957}},{{-0.0656325,-0.01863549,0.02796587,-0.05060122,-0.05160077},{0.0283139,-0.0495364,-0.05751611,-0.05168945,-0.02414952},{-0.00351764,0.00512124,-0.03991838,-0.0262742,-0.06349536},{0.04282063,0.01946731,-0.05053435,-0.02749669,-0.00787849},{0.00850657,0.01110489,-0.02186482,-0.02510095,-0.01916634}},{{-0.06277493,0.00878476,-0.03510743,-0.03632293,-0.05152419},{-0.001799,-0.05166099,-0.060243,-0.05413926,-0.00158969},{-0.08071493,-0.03405257,0.02578997,-0.01913116,0.00312771},{-0.00443923,-0.00037428,0.0039111,-0.04226114,0.00153482},{-0.00232308,-0.01284438,-0.04444014,0.03218405,-0.02358766}},{{-0.03913774,-0.02299743,-0.0525055,0.03223227,-0.00435252},{0.00582677,-0.06147769,-0.02771672,-0.04124742,-0.08320762},{-0.00744833,-0.00199636,-0.05023649,-0.03777381,-0.04946392},{-0.04802554,-0.01748286,0.01184638,-0.02832145,0.01990346},{0.00573184,-0.01497977,-0.02183109,-0.03379465,-0.0252391}},{{-0.00908131,-0.06109016,0.03281643,-0.05340135,0.00616636},{0.01059342,-0.05174316,-0.02130392,-0.01642856,-0.03548237},{-0.0135117,-0.00078584,-0.04636624,0.00014274,-0.04452574},{-0.04370198,-0.08257391,-0.065006,-0.08508474,-0.00465304},{0.03268601,-0.04935351,-0.07768824,0.01330278,-0.06755488}},{{0.05789043,-0.06313504,0.01435333,-0.03313264,-0.07186231},{-0.02669024,0.00263673,0.05958459,0.02817045,-0.05420514},{-0.01534042,-0.03212259,-0.07338186,0.01412411,-0.0593913},{-0.05619648,0.00760498,-0.02607894,-0.05691737,-0.07694469},{0.01854706,-0.04570144,-0.03414472,0.00945636,-0.04464587}},{{-0.06627513,-0.00477416,-0.06434299,-0.07188873,-0.05252493},{-0.0036232,-0.05224255,-0.01600446,-0.06874651,-0.02098272},{-0.04161854,-0.03181982,0.01601684,-0.05561554,-0.04108884},{-0.02660329,-0.06769312,-0.03764695,-0.03409882,-0.01239408},{-0.07101536,-0.05590313,0.00801964,-0.05765377,-0.05002172}},{{-0.04070615,0.00470076,0.00155924,-0.01984688,-0.0243286},{0.03430415,-0.04821029,-0.06080223,0.0214243,-0.00495801},{-0.01941408,-0.05888523,-0.05023291,-0.04314462,-0.04367568},{0.01394807,-0.02555753,-0.01545724,-0.00073069,-0.01436584},{0.00157447,-0.01477687,0.00137509,-0.05766872,-0.01008345}},{{-0.00017739,-0.03954444,-0.00896668,0.00349209,0.02290796},{-0.02580794,0.0230906,-0.02640632,-0.02695392,-0.01818459},{0.01023259,-0.04788124,-0.05251003,-0.04944531,-0.00777372},{0.00094767,0.0030274,0.00121601,-0.03530252,-0.05961253},{-0.05771158,-0.02723299,0.01553822,-0.01559933,-0.04695733}},{{-0.03255063,0.01290574,0.02610945,-0.0852321,-0.09754675},{-0.03744558,-0.00643549,-0.00378247,-0.06132541,-0.0621919},{-0.02408878,-0.02330084,0.00031657,0.00406548,-0.01904451},{-0.05843141,-0.06903174,-0.0063788,0.04495024,-0.04466023},{0.0017423,-0.08291839,-0.04057641,-0.05239091,-0.08871168}},{{-0.03284881,0.03634537,0.02946761,-0.00368326,-0.03955295},{0.02520139,0.01124506,-0.04528134,-0.06207887,-0.00850309},{-0.03776455,-0.01609468,-0.05158574,-0.04406934,0.00049124},{0.01201906,-0.05648031,-0.06724558,0.01593389,-0.04658653},{-0.04573135,-0.04995406,-0.04409343,-0.07389366,-0.00571419}},{{-0.05093101,-0.0039683,-0.05020922,0.01603829,-0.0338188},{0.02577061,-0.01084038,0.01990408,0.00307125,-0.01496625},{-0.00946748,-0.04768178,-0.02737651,0.003733,0.00622123},{-0.00923853,0.01027568,-0.07162433,-0.02580657,-0.06912095},{0.01420861,-0.02788074,-0.05569207,-0.07510943,0.01409838}},{{-0.00542972,-0.00402984,0.01703273,-0.01268203,-0.02066186},{-0.04975763,0.00874203,-0.01102129,-0.05435669,-0.02511376},{-0.05570671,0.01349121,-0.04725412,-0.04230833,-0.03483027},{-0.03183379,-0.03358048,-0.02530228,-0.04404664,0.00691189},{-0.06730947,-0.01514828,-0.03601813,-0.00436292,0.00769083}},{{-0.04122539,-0.05976816,0.01486137,0.02554891,-0.00830483},{0.00352265,0.04332253,-0.03417171,-0.07096265,-0.02880142},{-0.06118242,0.01393414,-0.03288895,-0.02063863,-0.00377894},{-0.03381212,-0.04244414,-0.01487895,-0.04874741,-0.02584127},{-0.01137868,0.00667893,-0.0301907,-0.01232754,-0.00108065}}},{{{0.06151228,0.04788247,0.00930818,-0.03023504,0.07346633},{-0.03998863,-0.01259438,-0.01514309,0.05615707,0.0692685},{-0.01358369,-0.00431516,-0.00520505,-0.02069894,-0.01800635},{-0.01386869,-0.00930204,0.00695742,0.03934365,-0.03471937},{-0.04198939,-0.00917657,0.01580389,-0.03350184,0.00091754}},{{0.07631473,0.02639159,0.06734649,0.03020678,0.05920031},{0.03108961,0.11292129,-0.00418489,-0.00769996,-0.01020927},{-0.02454453,0.02536145,0.00210675,0.03137602,-0.04574421},{-0.00623154,0.00890297,0.03414474,0.0376709,0.02655109},{-0.039235,0.01322081,-0.00261488,0.02592551,-0.10015346}},{{-0.12400395,0.00987094,-0.0278389,-0.04873745,0.09146293},{-0.10667135,-0.09516526,-0.08191741,-0.0152127,0.07258257},{-0.06647176,-0.10860415,-0.02984095,0.04031905,0.09558191},{0.063547,-0.01547366,-0.07414981,-0.02128756,-0.06395509},{-0.0138063,-0.14452629,-0.0186583,0.02176507,-0.00771615}},{{0.12647545,0.04075315,-0.0247007,0.13352112,0.0674614},{-0.00421995,0.0238252,-0.02206509,0.05164519,-0.01119044},{-0.00981579,-0.02844456,-0.04619926,-0.03473508,-0.16682963},{-0.05198199,0.03898408,-0.00823254,-0.03400931,-0.09494022},{0.03082485,0.02141267,-0.00077377,0.02857514,0.07801127}},{{0.06494068,0.01565655,-0.00068845,0.0734126,0.16720091},{0.03245984,0.0668253,-0.04659138,-0.04458873,0.02878524},{-0.04173643,0.07668875,-0.00533005,-0.03306959,-0.12944134},{-0.03405186,0.07365882,0.03508333,-0.03785741,-0.04976015},{0.00456627,0.04195403,0.0138147,0.0430879,0.04188923}},{{0.09699354,0.00278624,-0.04030642,-0.03119673,-0.04658359},{0.01089466,-0.00119124,0.05814546,-0.04241913,0.01004875},{0.04182892,0.02821542,0.05694126,-0.00148875,-0.0296133},{-0.02774913,0.05580573,0.06849822,0.01044121,-0.07404999},{0.04920094,0.06224398,0.0052878,-0.05879923,-0.06024739}},{{0.05731219,0.030019,0.02134279,-0.02287107,0.08095279},{0.01145783,0.05274431,0.03845258,0.03875114,0.08630072},{-0.00291353,0.00981955,0.01229665,0.01759582,0.03747989},{-0.06011933,0.00958361,-0.04573346,-0.04707773,-0.01166135},{-0.02498024,-0.0398476,0.05247376,0.03047548,-0.00637332}},{{-0.03349537,-0.01510102,-0.05237192,0.05724384,0.04390965},{-0.03028409,-0.02820996,-0.02610319,0.02236645,-0.00843499},{-0.00961836,0.05227697,-0.06472833,-0.00356168,0.01407754},{-0.06513571,-0.06191201,-0.04145653,0.04503015,-0.00133458},{-0.01594133,-0.08121269,-0.01885315,0.01473926,-0.05932115}},{{-0.02407325,0.02030601,-0.06782155,-0.05865667,0.04854915},{-0.05929973,-0.04109147,-0.0992812,-0.05804616,0.05832488},{0.01178661,0.00600401,0.08861835,0.0252701,0.11380969},{-0.01657034,-0.03279511,9.007e-05,0.00283269,-0.09956174},{-0.02589364,-0.00720539,0.00223133,-0.0666489,-0.03014458}},{{-0.00766239,-0.03504517,-0.02119784,-0.01714194,0.14052071},{-0.04094829,0.00070559,0.03308528,0.02115405,0.08882328},{-0.00887444,0.00201355,-0.05434472,-0.0532229,-0.04037164},{-0.02041074,0.0182978,-0.05481861,-0.02573128,-0.00098099},{-0.07291897,-0.05303548,-0.04143879,0.0672782,0.07034027}},{{0.00715102,0.02701306,-0.01626609,0.08746321,0.03359183},{0.04752744,0.03721597,0.00515563,-0.00720099,-0.03400885},{0.04783162,0.05000848,0.03337104,0.02419819,-0.13682249},{0.02024389,0.02049423,-0.03178243,-0.00339149,-0.06322715},{-0.06515384,-0.03234932,0.04263446,0.0962073,0.08655363}},{{0.08041952,0.02412235,0.04705,-0.10583762,0.0822105},{-0.00804678,-0.09670136,-0.09150966,-0.01857516,0.09830727},{-0.02361659,-0.08262265,-0.02816054,-0.07683934,-0.05693682},{-0.05438013,0.00358716,-0.006106,-0.08062121,-0.21891838},{0.03498637,0.05478988,0.05988433,0.05822538,0.01310972}},{{-0.03114804,0.04885932,-0.02796491,0.03746345,0.06565993},{0.07089092,0.03581733,0.06352321,-0.03008786,-0.00486287},{0.02169768,0.02981349,0.05600401,0.02561741,-0.01470367},{0.01196678,0.04544915,-0.02071357,-0.01921242,0.01633078},{0.01779204,0.03797929,0.02035369,-0.01715805,-0.04046651}},{{-0.01427949,-0.01565115,-0.01425448,-0.01372009,0.04077506},{0.01694999,0.04441818,0.06970995,-0.01323921,0.06537582},{-0.02000477,0.02787033,0.03693622,0.03376542,0.04144955},{0.02583895,-0.01335756,0.00716587,-0.03211953,-0.02249598},{-0.01398805,0.04659311,0.01957507,-0.03062804,-0.08361111}},{{-0.10174793,-0.07266354,0.03583668,-0.05852999,-0.03877188},{-0.01771445,0.03624861,0.07518548,-0.01212218,-0.03059309},{0.06997631,0.09969462,0.05493687,0.08723269,-0.02362621},{0.11943166,-0.04371295,-0.00896491,0.08232093,0.00212501},{0.07450426,0.10118132,0.04445772,-0.02716263,-0.04610387}},{{0.04068843,0.04283053,0.01643653,0.02737569,0.08441316},{0.10270758,0.06267665,-0.01051852,0.04234544,0.09594437},{0.05771985,0.10099187,0.0802925,-0.0258199,0.01361765},{-0.02131761,-0.0597551,-0.04001327,-0.0629781,-0.0600315},{-0.03084385,0.01363317,0.02430976,-0.01984364,-0.04424833}}},{{{0.02543126,0.00434299,0.05658459,0.04584279,-0.02082173},{-0.02849606,0.05293329,0.04111856,-0.04083867,-0.06472263},{-0.02128545,-0.00611787,0.043708,0.0370731,-0.08109536},{-0.07362618,-0.01856055,0.02156986,0.01595645,-0.07443827},{0.01813648,0.05908092,0.0494249,0.05595054,0.00150926}},{{-0.03516654,-0.04088176,-0.07586873,-0.03294191,-0.0795946},{0.02503591,-0.02280204,-0.03489226,-0.08408707,-0.03001125},{-0.01092174,0.02077479,-0.00040775,-0.03495559,-0.03783318},{-0.07268421,0.02356007,0.0019628,0.06098992,-0.02426058},{-0.00238051,-0.00741652,-0.09705952,0.02524321,0.02563837}},{{-0.02354768,0.06283937,0.01591909,0.03652551,0.07218788},{-0.03465178,-0.00384189,-0.04733507,0.03547082,0.06922561},{0.00492661,-0.02347489,-0.02609152,0.08728082,0.05765585},{0.05275808,0.06431244,0.04135212,-0.07910547,-0.05612828},{0.05357947,-0.01030444,-0.05322841,-0.03182232,-0.02587348}},{{0.05592008,0.00015677,-0.01369356,-0.09447988,-0.12646121},{0.0846039,0.01677195,0.0097252,-0.04160701,-0.11311148},{-0.05691869,-0.06733589,0.01506012,-0.07079697,-0.16465572},{-0.07694552,-0.04117806,0.00337455,-0.04409552,0.06405368},{-0.09516038,-0.05293136,-0.03792227,0.02277802,0.21015792}},{{-0.00733781,0.03783543,-0.07384093,-0.10995322,-0.11661159},{-0.01508062,-0.00915575,0.00154549,-0.02056673,-0.17204754},{-0.08092517,0.04504135,-0.08663928,-0.12289856,-0.11646461},{-0.11841029,-0.00596699,-0.07312752,0.05956683,0.06715661},{-0.09973942,-0.10069522,-0.04265205,0.04781945,0.22998257}},{{-0.05911982,-0.04961329,0.00703894,-0.00806982,-0.02290072},{-0.05665981,-0.00758297,0.02406786,0.00616351,0.04181623},{0.02613974,0.07669048,0.01340919,0.05537528,-0.03462338},{0.01708715,0.04358007,-0.00138852,0.04424414,-0.07919327},{0.04627954,-0.03966697,-0.01199511,-0.05234872,-0.01469542}},{{0.05579393,0.02211143,0.04266854,-0.02490814,0.05876682},{-0.00414691,-0.02799376,0.04078495,-0.0397812,-0.03482009},{0.00975966,-0.03202738,0.04269662,-0.01022475,-0.0468049},{0.01120691,-0.02987661,-0.05582916,0.0238341,0.02021706},{-0.07031906,-0.02362357,0.05383947,0.0733853,0.02438211}},{{0.00458876,